{"learner":{"attributes":{"best_iteration":"160","best_score":"0.967314930887868","scikit_learn":"{\"_estimator_type\": \"classifier\"}"},"feature_names":[],"feature_types":[],"gradient_booster":{"model":{"cats":{"enc":[],"feature_segments":[],"sorted_idx":[]},"gbtree_model_param":{"num_parallel_tree":"1","num_trees":"191"},"iteration_indptr":[0,1,2,3,4,5,6,7,8,9,10,11,12,13,14,15,16,17,18,19,20,21,22,23,24,25,26,27,28,29,30,31,32,33,34,35,36,37,38,39,40,41,42,43,44,45,46,47,48,49,50,51,52,53,54,55,56,57,58,59,60,61,62,63,64,65,66,67,68,69,70,71,72,73,74,75,76,77,78,79,80,81,82,83,84,85,86,87,88,89,90,91,92,93,94,95,96,97,98,99,100,101,102,103,104,105,106,107,108,109,110,111,112,113,114,115,116,117,118,119,120,121,122,123,124,125,126,127,128,129,130,131,132,133,134,135,136,137,138,139,140,141,142,143,144,145,146,147,148,149,150,151,152,153,154,155,156,157,158,159,160,161,162,163,164,165,166,167,168,169,170,171,172,173,174,175,176,177,178,179,180,181,182,183,184,185,186,187,188,189,190,191],"tree_info":[0,0,0,0,0,0,0,0,0,0,0,0,0,0,0,0,0,0,0,0,0,0,0,0,0,0,0,0,0,0,0,0,0,0,0,0,0,0,0,0,0,0,0,0,0,0,0,0,0,0,0,0,0,0,0,0,0,0,0,0,0,0,0,0,0,0,0,0,0,0,0,0,0,0,0,0,0,0,0,0,0,0,0,0,0,0,0,0,0,0,0,0,0,0,0,0,0,0,0,0,0,0,0,0,0,0,0,0,0,0,0,0,0,0,0,0,0,0,0,0,0,0,0,0,0,0,0,0,0,0,0,0,0,0,0,0,0,0,0,0,0,0,0,0,0,0,0,0,0,0,0,0,0,0,0,0,0,0,0,0,0,0,0,0,0,0,0,0,0,0,0,0,0,0,0,0,0,0,0,0,0,0,0,0,0,0,0,0,0,0,0],"trees":[{"base_weights":[-1.0903127E0,-7.9139966E-1,-1.1264817E0,-1.0422742E0,7.787785E-2,-1.1329519E0,-9.3161E-1,-4.969482E-1,-1.0864408E0,-1.0112965E0,6.5853614E-1,-9.104805E-2,-9.2119247E-1,-9.9426764E-1,6.5144134E-1,-2.7629152E-1,-1.034233E0,-1.0195428E0,-1.1036797E0,-1.0502797E0,1.0841665E0,-1.1222302E0,6.557898E-1,-1.0221801E0,6.440329E0,6.4162725E-1,-5.765213E-1,-1.1116116E0,-7.5575686E-1,-1.0480548E0,-8.1779987E-1,-1.1055726E0,5.5514085E-1,-1.0987246E0,-6.283405E-1,6.095607E-1,5.1710033E-1,-9.096776E-2,-1.0852332E0,-1.4866064E-1,-1.0934194E0,6.413195E-1,-1.9387173E-2,-7.392486E-1,1.5810243E0,-5.995032E-1,5.199439E-1,-8.95472E-2,-7.6759374E-1,-8.355729E-1,2.1254365E0,-8.2688314E-1,-1.0660964E0,-1.032723E0,-2.0065401E-1,-1.1064763E0,-4.7621366E-1,-1.0999652E0,3.401999E-1,1.4592208E0,-7.336379E-1,2.4152064E-1,5.5514085E-1,-1.0972756E0,5.0225294E-1,-5.2831894E-1,7.0779767E0,-1.1054556E0,-9.5757467E-1,3.401999E-1,-8.0806576E-2,-8.625455E-1,1.3509628E-1,-6.721286E-1,2.4324899E0,-7.1661246E-1,1.4106435E-1,-8.47405E-2,6.571517E-2,-8.345944E-2,-1.0192391E0,2.61166E-1,-5.1105183E-2,-1.020735E0,-1.655814E-1,-1.0800205E0,-9.4515765E-1,-1.0404408E0,9.786645E-2,-8.9961E-2,3.648566E-1,-1.0077021E0,-1.1102072E0,-8.612299E-2,4.9760193E-2,-9.479141E-1,-1.1222194E0,1.6361617E-1,3.3814447E0,-3.1985775E-1,-1.0460604E0,3.8583484E0,-5.218949E-2,-8.6123866E-1,-1.1329209E0,-6.575174E-1,1.2890878E0,3.722572E0,6.107514E-1,-1.0801864E0,-9.055118E-2,6.095607E-1,-1.0817857E0,-7.125398E-2,1.3494667E-1,-8.0424316E-2,5.6468897E-2,-8.2887895E-2,4.4488087E-2,5.655085E-2,2.1762937E-1,-2.1578606E-2,-6.1819203E-2,-5.8382243E-2,4.4651825E-2,-4.6263807E-2,1.7163232E-1,3.216407E-2,-8.4337756E-2,-8.788196E-2,-5.550772E-2,-2.7325137E-2,4.488061E-1,-8.655236E-2,-2.6453802E-2,-7.626326E-2,9.042273E-2,-8.384355E-2,4.2915888E-2,1.9237543E-2,4.488061E-1,-8.7450676E-2,-7.014518E-2,-8.8091865E-2,-9.059674E-2,-8.159982E-2,6.537352E-2,-8.619732E-2,-4.649605E-2,-8.983324E-2,-3.951989E-2,1.02109075E-1,-8.4447965E-2,-1.0782754E-2,3.8352072E-1,4.128574E-2,-8.100825E-2,-8.52685E-2,3.401999E-1,1.1636843E-1,4.5643997E-1,-4.678706E-2,4.402182E-2,-8.3330855E-2,5.701502E-1,-9.0819255E-2,-1.0782754E-2,-3.0328983E-2,-7.652161E-2,5.970546E-1,-6.7886263E-3,5.340522E-1,-6.936303E-2,-8.997621E-2,-7.971873E-2,3.401999E-1,-8.741963E-2],"categories":[],"categories_nodes":[],"categories_segments":[],"categories_sizes":[],"default_left":[0,0,0,0,0,0,0,0,0,0,0,0,0,0,0,0,0,0,0,0,0,0,0,0,0,0,0,0,0,0,0,0,0,0,0,0,0,0,0,0,0,0,0,0,0,0,0,0,0,0,0,0,0,0,0,0,0,0,0,0,0,0,0,0,0,0,0,0,0,0,0,0,0,0,0,0,0,0,0,0,0,0,0,0,0,0,0,0,0,0,0,0,0,0,0,0,0,0,0,0,0,0,0,0,0,0,0,0,0,0,0,0,0,0,0,0,0,0,0,0,0,0,0,0,0,0,0,0,0,0,0,0,0,0,0,0,0,0,0,0,0,0,0,0,0,0,0,0,0,0,0,0,0,0,0,0,0,0,0,0,0,0,0,0,0,0,0,0,0,0,0,0,0,0,0,0,0],"id":0,"left_children":[1,3,5,7,9,11,13,15,17,19,-1,-1,21,23,-1,25,27,29,31,33,35,37,-1,39,41,43,45,47,49,51,53,55,-1,57,59,-1,61,-1,63,65,67,-1,69,71,73,75,-1,-1,77,79,81,83,85,87,89,91,93,95,-1,97,99,101,-1,103,-1,105,107,109,111,-1,-1,113,115,117,119,121,123,-1,-1,125,127,-1,-1,129,131,133,135,137,-1,-1,139,141,143,-1,145,147,149,151,153,155,157,159,161,163,165,167,169,171,-1,173,-1,-1,175,-1,-1,-1,-1,-1,-1,-1,-1,-1,-1,-1,-1,-1,-1,-1,-1,-1,-1,-1,-1,-1,-1,-1,-1,-1,-1,-1,-1,-1,-1,-1,-1,-1,-1,-1,-1,-1,-1,-1,-1,-1,-1,-1,-1,-1,-1,-1,-1,-1,-1,-1,-1,-1,-1,-1,-1,-1,-1,-1,-1,-1,-1,-1,-1],"loss_changes":[4.6199375E3,1.0061773E4,4.79625E2,8.618164E2,9.178526E4,4.0128125E2,6.977756E3,3.1796826E2,3.7070312E1,7.459092E2,0E0,0E0,1.6076227E4,2.5330166E3,0E0,5.251658E2,1.5992065E1,3.8253418E1,4.0842578E2,1.8228125E2,6.1498883E2,3.4833984E0,0E0,7.54666E2,4.651897E2,6.106038E2,2.3732828E2,7.6031494E-1,4.155523E1,2.2876465E1,1.1207196E2,1.4441406E1,0E0,5.7972656E1,2.0422983E2,0E0,2.721981E2,0E0,2.268291E2,2.5163936E3,1.7277344E1,0E0,4.643112E1,2.0695412E1,5.386561E2,1.2427234E2,0E0,0E0,8.548109E0,2.3264961E1,1.7656498E1,5.796704E1,8.242676E0,1.2200684E1,1.1529347E2,8.5625E0,1.2522748E1,2.6097656E1,0E0,1.1080563E2,1.1349335E2,1.5892592E2,0E0,1.986621E1,0E0,2.0536963E2,5.705298E1,5.6533203E0,9.8868445E2,0E0,0E0,1.3509506E1,1.6628397E1,3.5245693E1,9.910144E1,3.080365E1,7.171684E1,0E0,0E0,3.903321E1,7.1743774E0,0E0,0E0,8.150543E0,1.07619095E2,6.597168E0,1.0800415E1,8.068115E0,0E0,0E0,8.813602E1,9.857849E0,3.8554688E0,0E0,1.8897749E1,4.8368286E1,2.5048828E0,3.9011196E1,8.981543E1,2.2072018E2,5.7109985E1,4.158763E1,4.498495E1,4.8178085E2,4.822998E0,6.7387665E1,4.9390143E2,1.2049735E2,0E0,1.8574707E1,0E0,0E0,5.773169E1,0E0,0E0,0E0,0E0,0E0,0E0,0E0,0E0,0E0,0E0,0E0,0E0,0E0,0E0,0E0,0E0,0E0,0E0,0E0,0E0,0E0,0E0,0E0,0E0,0E0,0E0,0E0,0E0,0E0,0E0,0E0,0E0,0E0,0E0,0E0,0E0,0E0,0E0,0E0,0E0,0E0,0E0,0E0,0E0,0E0,0E0,0E0,0E0,0E0,0E0,0E0,0E0,0E0,0E0,0E0,0E0,0E0,0E0,0E0,0E0,0E0,0E0,0E0,0E0],"parents":[2147483647,0,0,1,1,2,2,3,3,4,4,5,5,6,6,7,7,8,8,9,9,12,12,13,13,15,15,16,16,17,17,18,18,19,19,20,20,21,21,23,23,24,24,25,25,26,26,27,27,28,28,29,29,30,30,31,31,33,33,34,34,36,36,38,38,39,39,40,40,42,42,43,43,44,44,45,45,48,48,49,49,50,50,51,51,52,52,53,53,54,54,55,55,56,56,57,57,59,59,60,60,61,61,63,63,65,65,66,66,67,67,68,68,71,71,72,72,73,73,74,74,75,75,76,76,79,79,80,80,83,83,84,84,85,85,86,86,87,87,90,90,91,91,92,92,94,94,95,95,96,96,97,97,98,98,99,99,100,100,101,101,102,102,103,103,104,104,105,105,106,106,107,107,109,109,112,112],"right_children":[2,4,6,8,10,12,14,16,18,20,-1,-1,22,24,-1,26,28,30,32,34,36,38,-1,40,42,44,46,48,50,52,54,56,-1,58,60,-1,62,-1,64,66,68,-1,70,72,74,76,-1,-1,78,80,82,84,86,88,90,92,94,96,-1,98,100,102,-1,104,-1,106,108,110,112,-1,-1,114,116,118,120,122,124,-1,-1,126,128,-1,-1,130,132,134,136,138,-1,-1,140,142,144,-1,146,148,150,152,154,156,158,160,162,164,166,168,170,172,-1,174,-1,-1,176,-1,-1,-1,-1,-1,-1,-1,-1,-1,-1,-1,-1,-1,-1,-1,-1,-1,-1,-1,-1,-1,-1,-1,-1,-1,-1,-1,-1,-1,-1,-1,-1,-1,-1,-1,-1,-1,-1,-1,-1,-1,-1,-1,-1,-1,-1,-1,-1,-1,-1,-1,-1,-1,-1,-1,-1,-1,-1,-1,-1,-1,-1,-1,-1],"split_conditions":[-5.714286E-1,-3E-1,1E0,1E0,-5.862069E-1,1E0,1E0,1.724138E-1,-4.827586E-1,1.8E1,6.5853614E-1,-9.104805E-2,-5.5172414E-1,9E-1,6.5144134E-1,1E1,1.4E1,1.1E1,1E0,1.1E1,5E0,1E1,6.557898E-1,-4.4827586E-1,2.857143E0,8E0,1E0,1E0,1E0,3E0,-5.862069E-1,1E0,5.5514085E-1,1E0,1E0,6.095607E-1,1.2E1,-9.096776E-2,5.714286E-1,2E-1,3.5E-1,6.413195E-1,-5.1724136E-1,6E0,-5.1724136E-1,1.2E1,5.199439E-1,-8.95472E-2,1E0,2.413793E-1,3E0,-5.5172414E-1,2.1E1,1E0,6E0,1E0,1E1,-1E-1,3.401999E-1,1.5E1,1E0,1E0,5.5514085E-1,1.1E1,5.0225294E-1,5E-2,2.5E-1,2.0689656E-1,1.2857143E0,3.401999E-1,-8.0806576E-2,1E0,-2.0689656E-1,-5.862069E-1,9E0,-5.862069E-1,7E0,-8.47405E-2,6.571517E-2,6E0,1E0,2.61166E-1,-5.1105183E-2,-5.862069E-1,1E0,1E0,1E0,1E0,9.786645E-2,-8.9961E-2,1E0,1.2E1,2.0689656E-1,-8.612299E-2,-1.3793103E-1,5E0,1.11E1,6.5E-1,-2E-1,4E-1,5E0,1E0,1.4E1,-2.857143E-1,2.857143E-1,1.6E1,4.2857143E-1,8.5714287E-1,6.107514E-1,-5E-2,-9.055118E-2,6.095607E-1,-3.1034482E-1,-7.125398E-2,1.3494667E-1,-8.0424316E-2,5.6468897E-2,-8.2887895E-2,4.4488087E-2,5.655085E-2,2.1762937E-1,-2.1578606E-2,-6.1819203E-2,-5.8382243E-2,4.4651825E-2,-4.6263807E-2,1.7163232E-1,3.216407E-2,-8.4337756E-2,-8.788196E-2,-5.550772E-2,-2.7325137E-2,4.488061E-1,-8.655236E-2,-2.6453802E-2,-7.626326E-2,9.042273E-2,-8.384355E-2,4.2915888E-2,1.9237543E-2,4.488061E-1,-8.7450676E-2,-7.014518E-2,-8.8091865E-2,-9.059674E-2,-8.159982E-2,6.537352E-2,-8.619732E-2,-4.649605E-2,-8.983324E-2,-3.951989E-2,1.02109075E-1,-8.4447965E-2,-1.0782754E-2,3.8352072E-1,4.128574E-2,-8.100825E-2,-8.52685E-2,3.401999E-1,1.1636843E-1,4.5643997E-1,-4.678706E-2,4.402182E-2,-8.3330855E-2,5.701502E-1,-9.0819255E-2,-1.0782754E-2,-3.0328983E-2,-7.652161E-2,5.970546E-1,-6.7886263E-3,5.340522E-1,-6.936303E-2,-8.997621E-2,-7.971873E-2,3.401999E-1,-8.741963E-2],"split_indices":[10,8,70,32,9,69,5,9,9,1,0,0,9,8,0,4,1,4,69,1,4,4,0,9,10,1,70,71,12,4,9,41,0,70,20,0,4,0,10,8,8,0,9,1,9,4,0,0,27,9,2,9,3,43,1,20,1,8,0,1,69,32,0,4,0,8,8,9,10,0,0,43,9,9,1,9,1,0,0,2,50,0,0,9,69,16,35,18,0,0,69,1,9,0,9,1,8,8,8,8,2,7,3,10,10,3,10,10,0,8,0,0,9,0,0,0,0,0,0,0,0,0,0,0,0,0,0,0,0,0,0,0,0,0,0,0,0,0,0,0,0,0,0,0,0,0,0,0,0,0,0,0,0,0,0,0,0,0,0,0,0,0,0,0,0,0,0,0,0,0,0,0,0,0,0,0,0],"split_type":[0,0,0,0,0,0,0,0,0,0,0,0,0,0,0,0,0,0,0,0,0,0,0,0,0,0,0,0,0,0,0,0,0,0,0,0,0,0,0,0,0,0,0,0,0,0,0,0,0,0,0,0,0,0,0,0,0,0,0,0,0,0,0,0,0,0,0,0,0,0,0,0,0,0,0,0,0,0,0,0,0,0,0,0,0,0,0,0,0,0,0,0,0,0,0,0,0,0,0,0,0,0,0,0,0,0,0,0,0,0,0,0,0,0,0,0,0,0,0,0,0,0,0,0,0,0,0,0,0,0,0,0,0,0,0,0,0,0,0,0,0,0,0,0,0,0,0,0,0,0,0,0,0,0,0,0,0,0,0,0,0,0,0,0,0,0,0,0,0,0,0,0,0,0,0,0,0],"sum_hessian":[4.274038E5,4.6136723E4,3.812671E5,3.580357E4,1.0333151E4,3.690104E5,1.2256696E4,2.6834312E3,3.312014E4,9.116288E3,1.2168628E3,3.602468E5,8.763587E3,1.2173532E4,8.31642E1,1.9032872E3,7.801441E2,6.798353E3,2.6321787E4,8.950279E3,1.6600853E2,8.575401E3,1.8818565E2,1.2128857E4,4.46741E1,4.688115E2,1.4344757E3,6.081648E2,1.7197928E2,5.95285E3,8.455026E2,2.6316455E4,5.3310385E0,8.0270503E3,9.232291E2,1.2261388E1,1.5374713E2,6.096042E3,2.4793591E3,9.148061E2,1.1214052E4,3.5717957E1,8.956143E0,1.8989157E2,2.7891992E2,1.430744E3,3.7317266E0,5.925982E2,1.556663E1,1.6803432E2,3.9449682E0,4.524985E2,5.5003516E3,6.266102E2,2.1889243E2,2.6277965E4,3.8490093E1,8.0259844E3,1.0662076E0,4.371451E1,8.7951465E2,1.4841609E2,5.3310385E0,2.4761604E3,3.198623E0,8.700254E2,4.478072E1,1.0294768E4,9.192842E2,1.0662076E0,7.889936E0,1.66435E2,2.3456568E1,7.65537E1,2.0236621E2,1.2354148E3,1.9532924E2,1.3434216E1,2.1324153E0,3.326568E1,1.3476865E2,2.665519E0,1.2794491E0,3.4950284E2,1.0299565E2,4.925346E3,5.7500574E2,6.2501086E2,1.5993114E0,8.273771E1,1.3615471E2,9.6630396E2,2.5311662E4,1.7485804E1,2.100429E1,1.0302764E3,6.995708E3,2.676181E1,1.6952702E1,3.7925003E2,5.002646E2,1.0235593E1,1.3818051E2,3.281787E2,2.1479817E3,8.1287665E2,5.7148727E1,7.4634533E0,3.731727E1,5.2847646E3,5.010003E3,1.2261388E1,9.0702277E2,1.6526218E2,1.1728284E0,7.570074E0,1.5886494E1,5.9174522E1,1.7379185E1,2.942733E1,1.7293887E2,1.3850037E2,1.0969144E3,6.3012867E1,1.3231636E2,2.7828018E1,5.437659E0,2.9853814E0,1.3178326E2,2.804126E2,6.909025E1,1.00863235E2,2.1324153E0,4.9125513E3,1.2794491E1,5.732998E2,1.7059321E0,6.223454E2,2.665519E0,1.340223E2,2.1324153E0,5.8023016E2,3.8607376E2,1.8024453E4,7.287209E3,8.636281E0,1.2368009E1,7.5988617E2,2.7039026E2,6.987178E3,8.529661E0,1.39673195E1,1.2794491E1,5.1177964E0,1.1834905E1,1.7197928E2,2.0727075E2,4.991984E2,1.0662076E0,5.224417E0,5.011176E0,7.335508E1,6.4825424E1,3.2178146E2,6.397246E0,2.142864E3,5.1177964E0,4.2211157E2,3.9076508E2,9.595869E0,4.755286E1,4.2648306E0,3.1986227E0,3.4418247E3,1.8429398E3,1.0662076E0,9.059566E2],"tree_param":{"num_deleted":"0","num_feature":"75","num_nodes":"177","size_leaf_vector":"1"}},{"base_weights":[-1.0759733E0,-9.3923604E-1,-1.087514E0,-4.887148E-1,-9.813144E-1,-1.0942608E0,-8.393174E-1,-2.806115E-1,-1.0189447E0,-3.7291253E-1,-1.001506E0,-1.0779959E0,-1.118394E0,-1.0703449E0,3.820245E-1,5.352562E-1,-5.734989E-1,-1.1057675E0,-7.914429E-1,1.9462793E0,-8.995671E-2,-1.0035666E0,2.3776906E0,-1.055928E0,-1.112191E0,-1.1197449E0,3.7034437E-1,-1.0913486E0,6.1949306E0,2.6156197E0,-4.5068897E-2,-6.89288E-1,1.08668454E-1,-8.916942E-2,-7.3232716E-1,5.4696536E-1,-8.715353E-1,-8.925115E-2,3.7859306E-1,-9.442501E-1,-1.106553E0,2.8391361E0,-5.994351E-2,-9.228436E-1,-1.0918307E0,3.5996088E-1,-1.1135256E0,-1.1204202E0,-1.6029511E-1,-1.0971397E0,4.4046515E-1,6.0282415E-1,3.6523077E-1,-6.0649854E-1,3.796163E0,-6.8273634E-1,6.1964685E-1,-8.016976E-1,-4.7107422E-1,-6.5079486E-1,4.562487E-1,-8.331589E-2,7.5783813E-1,1.8801697E0,-7.716247E-2,-3.5089102E-1,-1.083362E0,-8.1670034E-1,-1.084811E0,-1.1118798E0,3.2218823E-1,2.6978648E-1,-5.779481E-2,-1.0061557E0,-6.950222E-1,-1.0961126E0,-9.889487E-1,-1.1240691E0,-8.7657815E-1,-1.1207855E0,-8.5408634E-1,-9.505243E-1,1.0179834E0,-1.1002735E0,3.234484E-1,-8.587922E-2,3.4024936E-1,-7.9771906E-2,4.1886406E0,-7.573119E-1,3.826989E-1,1.3997571E0,-7.292093E-1,-2.7874228E-1,-9.136443E-1,-5.34418E-1,5.563916E-1,1.4913224E0,-9.3841505E-1,7.2508365E-1,-8.868246E-1,1.2985702E-1,-4.6084017E-2,1.953652E-1,2.893214E-1,3.8848248E-1,-8.2552433E-1,-8.946439E-2,-4.8123688E-1,-2.73893E-1,-9.7351456E-1,-1.12352E0,4.676839E-1,-1.1123606E0,1.2211512E-1,-1.0804209E0,-8.913493E-1,-7.8109455E-1,3.7104252E-1,-1.0993743E0,-9.9853855E-1,3.3624718E0,-1.0005852E0,-9.154445E-1,-8.993997E-2,-1.0777947E0,3.7264803E-1,-1.1144001E0,-8.998452E-2,-1.0331289E0,1.17841676E-1,4.4574493E-1,-1.0246166E0,2.1440706E0,-8.4270254E-2,-1.119976E0,-1.0676249E0,-7.677289E-2,1.2922582E-1,3.5004473E-1,-6.676912E-2,-6.248767E-2,1.2254824E-1,-3.712616E-2,1.3442391E-1,-8.751493E-2,1.8562448E-1,-6.7495726E-2,4.405188E-2,-2.9741717E-3,-8.791805E-2,-8.645858E-2,-5.9466656E-2,-6.2007017E-2,-1.8837677E-2,8.967677E-2,-3.7880328E-2,-6.89103E-2,2.5652137E-1,-8.16712E-2,6.5241866E-2,2.0183122E-2,1.3229686E-1,-8.722348E-2,6.726786E-2,-6.476894E-2,1.3731335E-1,-3.9934583E-2,2.019881E-1,-7.610411E-2,5.2049145E-2,-7.857662E-2,9.149981E-2,-5.895622E-2,1.3036932E-1,-7.965092E-2,9.256349E-3,-8.9929424E-2,-6.429029E-2,-5.527658E-2,3.7128836E-1,-8.7243654E-2,-8.9840725E-2,1.4670786E-1,-6.627992E-2,-7.80346E-2,-8.8489674E-2,-7.7197924E-2,-4.9184408E-2,7.6888835E-5,-7.817051E-2,-8.126313E-2,-8.8178344E-2,-8.0232695E-2,8.253021E-2,3.0787393E-1,-4.7060065E-2,5.93916E-2,-8.1212245E-2,-8.8609114E-2,-5.890951E-3,3.4747183E-1,-8.858583E-2,-8.91912E-2,-7.645009E-2,9.2680065E-4,-8.481313E-2,1.0836694E-1,-8.482097E-2,-5.664976E-2,1.3565183E-1,-8.802098E-2,-6.1208162E-2,3.4808707E-1,1.1108389E-1,-6.5045744E-2,-8.966555E-2,-8.02845E-2,-8.7316796E-2],"categories":[],"categories_nodes":[],"categories_segments":[],"categories_sizes":[],"default_left":[0,0,0,0,0,0,0,0,0,0,0,0,0,0,0,0,0,0,0,0,0,0,0,0,0,0,0,0,0,0,0,0,0,0,0,0,0,0,0,0,0,0,0,0,0,0,0,0,0,0,0,0,0,0,0,0,0,0,0,0,0,0,0,0,0,0,0,0,0,0,0,0,0,0,0,0,0,0,0,0,0,0,0,0,0,0,0,0,0,0,0,0,0,0,0,0,0,0,0,0,0,0,0,0,0,0,0,0,0,0,0,0,0,0,0,0,0,0,0,0,0,0,0,0,0,0,0,0,0,0,0,0,0,0,0,0,0,0,0,0,0,0,0,0,0,0,0,0,0,0,0,0,0,0,0,0,0,0,0,0,0,0,0,0,0,0,0,0,0,0,0,0,0,0,0,0,0,0,0,0,0,0,0,0,0,0,0,0,0,0,0,0,0,0,0,0,0,0,0,0,0,0,0,0,0,0,0,0,0,0,0,0,0,0,0,0,0,0,0],"id":1,"left_children":[1,3,5,7,9,11,13,15,17,19,21,23,25,27,-1,29,31,33,35,37,-1,39,41,43,45,47,-1,49,51,53,55,57,59,-1,61,63,65,-1,-1,67,69,71,-1,73,75,-1,77,79,81,83,-1,-1,-1,85,87,89,91,93,95,97,99,-1,101,103,-1,105,107,109,111,113,-1,-1,-1,115,117,119,121,123,125,127,129,131,133,135,-1,-1,137,-1,139,141,143,145,147,149,151,153,155,157,159,161,163,-1,-1,165,-1,167,169,-1,171,173,175,177,179,181,183,185,187,189,-1,191,193,195,197,199,-1,201,-1,203,-1,205,207,209,211,213,-1,215,217,-1,-1,-1,-1,-1,-1,-1,-1,-1,-1,-1,-1,-1,-1,-1,-1,-1,-1,-1,-1,-1,-1,-1,-1,-1,-1,-1,-1,-1,-1,-1,-1,-1,-1,-1,-1,-1,-1,-1,-1,-1,-1,-1,-1,-1,-1,-1,-1,-1,-1,-1,-1,-1,-1,-1,-1,-1,-1,-1,-1,-1,-1,-1,-1,-1,-1,-1,-1,-1,-1,-1,-1,-1,-1,-1,-1,-1,-1,-1,-1,-1,-1],"loss_changes":[6.299375E2,5.895918E2,6.165E2,2.9331995E2,3.4932812E2,1.3971875E2,1.2667006E4,4.572555E2,1.3931091E1,1.598746E3,1.942461E2,1.6065625E2,1.1269844E3,1.4375908E3,0E0,6.1059155E2,1.11257935E2,9.685669E-1,2.3049225E1,1.9209006E3,0E0,1.6716406E2,2.6784592E1,6.218594E2,6.348828E2,9.34375E1,0E0,3.6326465E2,2.4962402E1,4.2189117E2,1.6842345E2,2.9143005E1,5.444253E1,0E0,7.891262E0,2.7010418E1,2.157434E1,0E0,0E0,3.124873E2,2.7953418E2,3.1110748E1,0E0,5.250957E2,4.4125E1,0E0,2.0905469E2,1.309375E1,9.665947E1,1.5494629E2,0E0,0E0,0E0,1.382355E1,1.5630762E2,1.6400757E1,2.05773E2,4.6163177E1,2.7085823E1,4.133181E1,5.1662903E1,0E0,4.660709E0,1.9721077E1,0E0,2.104264E1,2.4288788E0,7.8008594E2,5.0006152E2,6.0966797E0,0E0,0E0,0E0,1.7196484E2,3.4100935E3,3.0265625E1,2.1157642E2,2E0,3.9989917E3,2.453125E0,3.526059E1,6.874176E0,9.961644E1,4.810547E0,0E0,0E0,1.9474863E1,0E0,7.401428E1,1.1532364E1,1.6084229E1,2.863294E2,1.1008434E1,2.7944681E1,1.776886E1,2.7748184E1,1.4713285E1,3.528066E1,9.187092E0,5.151682E1,9.359261E0,0E0,0E0,8.423008E0,0E0,4.632938E1,7.35532E0,0E0,8.849123E0,1.8136606E3,1.7149463E2,6.484375E-1,9.844247E2,1.109375E0,9.353019E0,3.2137695E1,1.6172705E2,1.1197949E3,0E0,2.1640625E1,2.9411621E1,2.3759003E1,1.0490381E2,1.2044792E1,0E0,5.588911E2,0E0,3.28125E0,0E0,4.831299E0,4.8511105E1,6.713916E0,3.20549E-1,3.959436E1,0E0,5.908203E-1,4.304199E0,0E0,0E0,0E0,0E0,0E0,0E0,0E0,0E0,0E0,0E0,0E0,0E0,0E0,0E0,0E0,0E0,0E0,0E0,0E0,0E0,0E0,0E0,0E0,0E0,0E0,0E0,0E0,0E0,0E0,0E0,0E0,0E0,0E0,0E0,0E0,0E0,0E0,0E0,0E0,0E0,0E0,0E0,0E0,0E0,0E0,0E0,0E0,0E0,0E0,0E0,0E0,0E0,0E0,0E0,0E0,0E0,0E0,0E0,0E0,0E0,0E0,0E0,0E0,0E0,0E0,0E0,0E0,0E0,0E0,0E0,0E0,0E0,0E0,0E0,0E0,0E0,0E0,0E0,0E0,0E0,0E0,0E0],"parents":[2147483647,0,0,1,1,2,2,3,3,4,4,5,5,6,6,7,7,8,8,9,9,10,10,11,11,12,12,13,13,15,15,16,16,17,17,18,18,19,19,21,21,22,22,23,23,24,24,25,25,27,27,28,28,29,29,30,30,31,31,32,32,34,34,35,35,36,36,39,39,40,40,41,41,43,43,44,44,46,46,47,47,48,48,49,49,53,53,54,54,55,55,56,56,57,57,58,58,59,59,60,60,62,62,63,63,65,65,66,66,67,67,68,68,69,69,73,73,74,74,75,75,76,76,77,77,78,78,79,79,80,80,81,81,82,82,83,83,86,86,88,88,89,89,90,90,91,91,92,92,93,93,94,94,95,95,96,96,97,97,98,98,99,99,100,100,103,103,105,105,106,106,108,108,109,109,110,110,111,111,112,112,113,113,114,114,115,115,116,116,117,117,119,119,120,120,121,121,122,122,123,123,125,125,127,127,129,129,130,130,131,131,132,132,133,133,135,135,136,136],"right_children":[2,4,6,8,10,12,14,16,18,20,22,24,26,28,-1,30,32,34,36,38,-1,40,42,44,46,48,-1,50,52,54,56,58,60,-1,62,64,66,-1,-1,68,70,72,-1,74,76,-1,78,80,82,84,-1,-1,-1,86,88,90,92,94,96,98,100,-1,102,104,-1,106,108,110,112,114,-1,-1,-1,116,118,120,122,124,126,128,130,132,134,136,-1,-1,138,-1,140,142,144,146,148,150,152,154,156,158,160,162,164,-1,-1,166,-1,168,170,-1,172,174,176,178,180,182,184,186,188,190,-1,192,194,196,198,200,-1,202,-1,204,-1,206,208,210,212,214,-1,216,218,-1,-1,-1,-1,-1,-1,-1,-1,-1,-1,-1,-1,-1,-1,-1,-1,-1,-1,-1,-1,-1,-1,-1,-1,-1,-1,-1,-1,-1,-1,-1,-1,-1,-1,-1,-1,-1,-1,-1,-1,-1,-1,-1,-1,-1,-1,-1,-1,-1,-1,-1,-1,-1,-1,-1,-1,-1,-1,-1,-1,-1,-1,-1,-1,-1,-1,-1,-1,-1,-1,-1,-1,-1,-1,-1,-1,-1,-1,-1,-1,-1,-1],"split_conditions":[1E0,-3E-1,1E0,1.724138E-1,-7.068766E-1,2.0689656E-1,-5.5172414E-1,1E1,1.2E1,1E0,9.23362E0,1.1E0,2.55E0,-1.2049639E-2,3.820245E-1,-2.3403361E-1,1.2E1,1E0,1E0,1E0,-8.995671E-2,2.7586207E-1,2E-1,-4.1379312E-1,-7.219249E-1,7.5E-1,3.7034437E-1,5E0,-5.862069E-1,-2.0689656E-1,9E0,-2.0689656E-1,8E0,-8.916942E-2,1E0,5.0892675E-1,2.7586207E-1,-8.925115E-2,3.7859306E-1,1.1E0,6.5E-1,2.0689656E-1,-5.994351E-2,-5.5172414E-1,3E-1,3.5996088E-1,-5.5172414E-1,5.5E-1,2.7586207E-1,1.8E1,4.4046515E-1,6.0282415E-1,3.6523077E-1,-5.5172414E-1,-6.952158E-1,1E0,1.623726E0,-5.862069E-1,1E0,-4.718293E-1,2.4445367E0,-8.331589E-2,3E0,2.1E1,-7.716247E-2,1E1,1E0,-3.7931034E-1,-5.5172414E-1,5.5E-1,3.2218823E-1,2.6978648E-1,-5.779481E-2,1E1,2.5E-1,2.2971056E0,-3.1034482E-1,-7.0470214E-1,3.35E0,4.4827586E-1,-3.2318875E-1,8E-1,5.1724136E-1,1E1,3.234484E-1,-8.587922E-2,-4.2319056E-1,-7.9771906E-2,1E0,1E0,6E0,-5.862069E-1,1E0,1.0635804E0,-3.2318875E-1,2E1,2.2E1,1.5E1,1E0,5E0,1E0,1.2985702E-1,-4.6084017E-2,5E0,2.893214E-1,4E0,1E0,-8.946439E-2,1.2E1,-5.5172414E-1,4E-1,1E0,2.55E0,4.827586E-1,3E0,-5E-2,1.1E1,1E1,3.7104252E-1,1E0,1E0,2.1E1,1E0,1.2E1,-8.993997E-2,-3.1034482E-1,3.7264803E-1,4.5E-1,-8.998452E-2,2E0,4.1379312E-1,-2.6126242E-1,1E0,3E0,-8.4270254E-2,-3E-1,1.1E1,-7.677289E-2,1.2922582E-1,3.5004473E-1,-6.676912E-2,-6.248767E-2,1.2254824E-1,-3.712616E-2,1.3442391E-1,-8.751493E-2,1.8562448E-1,-6.7495726E-2,4.405188E-2,-2.9741717E-3,-8.791805E-2,-8.645858E-2,-5.9466656E-2,-6.2007017E-2,-1.8837677E-2,8.967677E-2,-3.7880328E-2,-6.89103E-2,2.5652137E-1,-8.16712E-2,6.5241866E-2,2.0183122E-2,1.3229686E-1,-8.722348E-2,6.726786E-2,-6.476894E-2,1.3731335E-1,-3.9934583E-2,2.019881E-1,-7.610411E-2,5.2049145E-2,-7.857662E-2,9.149981E-2,-5.895622E-2,1.3036932E-1,-7.965092E-2,9.256349E-3,-8.9929424E-2,-6.429029E-2,-5.527658E-2,3.7128836E-1,-8.7243654E-2,-8.9840725E-2,1.4670786E-1,-6.627992E-2,-7.80346E-2,-8.8489674E-2,-7.7197924E-2,-4.9184408E-2,7.6888835E-5,-7.817051E-2,-8.126313E-2,-8.8178344E-2,-8.0232695E-2,8.253021E-2,3.0787393E-1,-4.7060065E-2,5.93916E-2,-8.1212245E-2,-8.8609114E-2,-5.890951E-3,3.4747183E-1,-8.858583E-2,-8.91912E-2,-7.645009E-2,9.2680065E-4,-8.481313E-2,1.0836694E-1,-8.482097E-2,-5.664976E-2,1.3565183E-1,-8.802098E-2,-6.1208162E-2,3.4808707E-1,1.1108389E-1,-6.5045744E-2,-8.966555E-2,-8.02845E-2,-8.7316796E-2],"split_indices":[32,8,69,9,0,9,9,4,1,73,0,8,8,0,0,0,4,71,20,5,0,9,8,9,0,8,0,2,9,9,1,9,1,0,27,0,9,0,0,8,8,9,0,9,8,0,9,8,9,1,0,0,0,9,0,61,0,9,62,0,0,0,4,1,0,4,52,9,9,8,0,0,0,1,8,0,9,0,8,9,0,8,9,4,0,0,0,0,67,43,1,9,58,0,0,3,3,3,71,2,52,0,0,2,0,4,60,0,4,9,8,39,8,9,4,8,4,4,0,20,35,3,20,4,0,9,0,8,0,4,9,0,74,4,0,8,4,0,0,0,0,0,0,0,0,0,0,0,0,0,0,0,0,0,0,0,0,0,0,0,0,0,0,0,0,0,0,0,0,0,0,0,0,0,0,0,0,0,0,0,0,0,0,0,0,0,0,0,0,0,0,0,0,0,0,0,0,0,0,0,0,0,0,0,0,0,0,0,0,0,0,0,0,0,0,0,0,0,0],"split_type":[0,0,0,0,0,0,0,0,0,0,0,0,0,0,0,0,0,0,0,0,0,0,0,0,0,0,0,0,0,0,0,0,0,0,0,0,0,0,0,0,0,0,0,0,0,0,0,0,0,0,0,0,0,0,0,0,0,0,0,0,0,0,0,0,0,0,0,0,0,0,0,0,0,0,0,0,0,0,0,0,0,0,0,0,0,0,0,0,0,0,0,0,0,0,0,0,0,0,0,0,0,0,0,0,0,0,0,0,0,0,0,0,0,0,0,0,0,0,0,0,0,0,0,0,0,0,0,0,0,0,0,0,0,0,0,0,0,0,0,0,0,0,0,0,0,0,0,0,0,0,0,0,0,0,0,0,0,0,0,0,0,0,0,0,0,0,0,0,0,0,0,0,0,0,0,0,0,0,0,0,0,0,0,0,0,0,0,0,0,0,0,0,0,0,0,0,0,0,0,0,0,0,0,0,0,0,0,0,0,0,0,0,0,0,0,0,0,0,0],"sum_hessian":[3.99825E5,3.1125566E4,3.6869944E5,2.6598567E3,2.846571E4,3.58939E5,9.760451E3,1.9112594E3,7.4859717E2,9.149929E2,2.7550717E4,2.1445217E5,1.4448681E5,9.375483E3,3.8496796E2,5.046574E2,1.406602E3,5.3902545E2,2.0957173E2,2.2355045E2,6.914425E2,2.7534629E4,1.6088284E1,1.3035709E5,8.409508E4,1.4445367E5,3.3143753E1,9.349305E3,2.617883E1,1.0930631E2,3.953511E2,1.2024852E3,2.0411685E2,5.246078E2,1.4417644E1,1.1503857E1,1.9806787E2,1.0678973E2,1.1676071E2,1.7478047E4,1.0056583E4,1.4099666E1,1.9886181E0,2.7701197E4,1.026559E5,1.919501E1,8.407588E4,1.4435189E5,1.017718E2,9.3419375E3,7.3667545E0,1.2375377E1,1.38034525E1,2.9440125E1,7.986619E1,2.017671E2,1.93584E2,7.918841E2,4.1060104E2,6.3812996E1,1.4030385E2,1.2190047E1,2.2275968E0,5.982831E0,5.521026E0,5.8048412E1,1.4001945E2,9.16669E3,8.311356E3,1.0046941E4,9.641297E0,1.230991E1,1.7897563E0,2.0281152E4,7.4200464E3,9.85449E4,4.1109995E3,8.049057E4,3.5853179E3,1.4415097E5,2.0092833E2,6.103267E1,4.073913E1,9.337031E3,4.9063635E0,1.9625702E1,9.814423E0,5.927934E0,7.3938255E1,1.8883849E2,1.2928618E1,1.2262573E2,7.095826E1,1.402414E2,6.5164276E2,3.8720926E2,2.339178E1,7.0584598E0,5.6754536E1,1.17287285E2,2.3016563E1,1.2195182E0,1.0080786E0,3.6011224E0,2.3817086E0,2.2765821E1,3.5282593E1,1.315292E2,8.490247E0,2.0552515E3,7.111439E3,8.1094365E3,2.0191975E2,1.0043127E4,3.8142128E0,1.2309846E4,7.9713057E3,7.3030337E3,1.17013084E2,9.534745E4,3.1974456E3,1.0196202E1,4.100803E3,7.396061E1,8.041661E4,3.460321E3,1.249968E2,5.5807195E4,8.834377E4,1.6961919E2,3.130915E1,2.8227062E0,5.820996E1,2.636876E1,1.4370369E1,5.8022256E3,3.5348057E3,4.9823694E0,4.832053E0,7.140999E1,2.528271E0,1.8754868E2,1.2898102E0,8.212039E0,4.7165794E0,3.3011597E1,8.9614136E1,6.544481E1,5.513453E0,1.0914319E2,3.1098198E1,3.262356E2,3.2540714E2,2.1363112E2,1.7357816E2,1.5052103E1,8.339679E0,3.1860328E0,3.872427E0,5.4604816E1,2.1497214E0,7.856099E1,3.87263E1,2.0921545E1,2.0950181E0,2.4500644E0,1.1510578E0,1.6624609E1,6.141212E0,3.283995E1,2.4426405E0,6.7919097E0,1.6983374E0,1.6535992E3,4.0165213E2,6.969965E3,1.414741E2,8.0918013E3,1.7635296E1,1.586963E2,4.3223442E1,3.3282158E3,6.714911E3,1.0301476E0,2.7840652E0,2.4284194E3,9.881427E3,6.2933325E3,1.677973E3,1.4639294E3,5.839104E3,3.1610618E3,9.218639E4,3.1910825E3,6.36316E0,9.102463E0,1.09374E0,3.3576393E1,4.067227E3,5.995761E1,1.4002995E1,1.7954155E1,3.442367E3,5.5629535E4,1.7765773E2,4.2931404E0,1.6532603E2,1.5201344E1,1.6107807E1,1.6931279E0,1.1295785E0,4.2563473E1,1.564649E1,5.511018E0,2.085774E1,1.8544876E1,5.7836807E3,9.7014734E2,2.5646584E3],"tree_param":{"num_deleted":"0","num_feature":"75","num_nodes":"219","size_leaf_vector":"1"}},{"base_weights":[-1.0632645E0,-7.448793E-1,-1.1030349E0,1.6103828E-1,-8.373183E-1,-1.1079566E0,-8.9736176E-1,-5.7046545E-1,9.068477E-1,-6.10011E-1,-9.595669E-1,-1.1083652E0,-1.0087106E0,-1.0940151E0,2.8432843E-1,-1.0560273E0,-2.7693796E-1,2.2253754E0,4.2278435E-2,-9.459111E-1,7.204394E-2,-4.7225598E-1,-9.792993E-1,-1.1013819E0,-1.1128907E0,3.300607E0,-8.921078E-2,-1.0971595E0,-7.504916E-1,-1.0626694E0,5.9611845E-1,1.2444565E0,-4.9597776E-1,2.7526577E0,-8.168546E-2,-2.620723E-1,1.2556852E0,-9.648645E-1,1.0443863E0,5.6075424E-1,-6.9902784E-1,-6.883543E-1,2.1572861E-1,-1.009905E0,-8.3623445E-1,-1.1113136E0,-1.0754042E0,-8.905971E-2,-1.0858597E0,-6.3993126E-2,2.937293E-1,-8.920728E-2,-1.0536263E0,-8.78942E-2,3.6146423E-1,-8.790456E-2,-9.5233464E-1,-5.3997505E-2,1.4956462E-1,2.5405352E0,3.1034708E-1,-1.3816337E-1,-8.499004E-1,-7.009143E-1,3.220647E0,6.821959E-1,-8.900524E-1,3.3505446E-1,-4.937787E-1,2.66438E0,6.7200446E-1,-1.1033114E0,-8.617048E-1,-8.86988E-1,2.7767402E-1,-9.225548E-1,1.1338764E0,-7.272553E-1,2.6113582E-1,-3.5764864E-1,-8.26231E-1,-7.861317E-1,1.0941434E0,-9.2905945E-1,-1.046885E0,-5.694527E-1,-9.779393E-1,-1.1118597E0,-1.0127275E0,-6.6414297E-1,-1.104886E0,-1.0487124E0,-8.9226626E-2,-1.0694469E0,2.8596828E0,-9.7118413E-1,-5.6058955E-1,1.0205536E0,2.878353E-1,-7.7765507E-1,2.4953353E0,6.6035134E-1,-6.916197E-1,-8.88076E-1,2.6827666E-1,-7.622991E-1,1.3738455E-1,3.9496202E0,2.781875E0,1.4003874E-1,1.6061178E0,-1.0300038E0,2.4964401E-1,-3.2355908E-1,2.2665932E0,-5.2227944E-1,1.4313698E0,-1.009497E-1,4.1960316E0,1.3746299E0,1.5804276E-1,-8.8368006E-2,-7.784451E-1,7.467774E-1,-9.6341735E-1,-9.866835E-1,1.1614496E-1,-9.3502545E-1,1.1386409E0,3.0296538E0,2.8281882E-1,-4.982189E-1,-1.0568993E0,-9.092162E-1,-5.9279304E-2,-9.483918E-1,-6.040177E-1,-1.0188826E0,-4.6206272E-1,2.2018118E0,2.725711E-1,-1.0003178E0,-8.317528E-1,-1.0539781E0,2.9720393E-1,-9.970406E-1,7.488933E-1,-9.915233E-1,2.5550944E-1,-8.920059E-2,-1.1063935E0,2.643228E0,-8.907199E-2,-7.3927546E-1,2.5343373E-1,-1.1057068E0,-8.591913E-1,-1.0064791E0,-8.905938E-2,-7.9308444E-1,-1.112327E0,-6.841878E-2,4.016775E-1,-6.627897E-2,-8.4821336E-2,-8.010675E-2,1.1633052E-1,-4.2351775E-2,1.4470825E-1,2.0319583E-2,-7.9918966E-2,1.8995205E-2,2.9807854E-1,-5.615598E-3,1.2734118E-1,-6.7199536E-2,-7.7867447E-3,-7.2861254E-2,-4.4867266E-3,9.903569E-2,-7.915518E-2,3.031042E-2,-7.016677E-2,1.8484157E-1,3.1832972E-1,1.7120941E-1,2.6953384E-1,1.8689373E-1,-1.3807452E-2,7.832086E-3,1.7672913E-1,-8.775418E-2,-5.3913705E-2,-6.1932445E-2,2.7529847E-2,1.08747825E-1,3.010831E-1,-5.2018777E-2,-1.8696126E-2,3.653626E-2,2.1593578E-1,1.1430919E-1,-4.643034E-2,3.4008923E-1,1.1336019E-1,1.4317423E-1,4.676919E-3,5.6498773E-2,-5.6465954E-2,-8.388713E-2,1.0589598E-1,-2.9883955E-2,1.9918369E-1,-6.270331E-2,-8.509205E-2,-8.700773E-2,-4.0376786E-2,-7.579878E-2,7.175471E-2,1.87106E-1,-5.643176E-2,2.2520497E-1,3.0663845E-1,1.2454348E-2,2.7983865E-1,-5.91725E-2,-1.2910406E-2,-8.511078E-2,7.076604E-2,-7.680041E-2,-1.8246792E-2,8.496875E-2,-2.8807929E-2,-5.912638E-2,-8.5187875E-2,-7.486855E-2,-5.2178395E-3,-8.776704E-2,1.5741287E-2,4.605919E-2,-6.470152E-2,-1.6384874E-2,3.1639358E-1,5.993638E-4,2.482163E-1,-8.338676E-2,-6.817369E-2,-7.433464E-2,-3.3012636E-2,1.2404041E-1,-8.43473E-2,-8.55266E-2,-5.6811213E-2,1.3920505E-1,-3.709912E-2,-7.422696E-2,-8.759881E-2,-8.8554054E-2,-7.607807E-2,-6.2343616E-2,2.702631E-1,2.332721E-2,-6.62296E-2,-8.8522434E-2,-7.0840545E-2,2.4602485E-1,-8.863389E-2,-8.894678E-2,-7.5134665E-2,-7.7859536E-2,3.8793698E-1,-8.919983E-2,-6.261077E-2],"categories":[],"categories_nodes":[],"categories_segments":[],"categories_sizes":[],"default_left":[0,0,0,0,0,0,0,0,0,0,0,0,0,0,0,0,0,0,0,0,0,0,0,0,0,0,0,0,0,0,0,0,0,0,0,0,0,0,0,0,0,0,0,0,0,0,0,0,0,0,0,0,0,0,0,0,0,0,0,0,0,0,0,0,0,0,0,0,0,0,0,0,0,0,0,0,0,0,0,0,0,0,0,0,0,0,0,0,0,0,0,0,0,0,0,0,0,0,0,0,0,0,0,0,0,0,0,0,0,0,0,0,0,0,0,0,0,0,0,0,0,0,0,0,0,0,0,0,0,0,0,0,0,0,0,0,0,0,0,0,0,0,0,0,0,0,0,0,0,0,0,0,0,0,0,0,0,0,0,0,0,0,0,0,0,0,0,0,0,0,0,0,0,0,0,0,0,0,0,0,0,0,0,0,0,0,0,0,0,0,0,0,0,0,0,0,0,0,0,0,0,0,0,0,0,0,0,0,0,0,0,0,0,0,0,0,0,0,0,0,0,0,0,0,0,0,0,0,0,0,0,0,0,0,0,0,0,0,0,0,0,0,0,0,0,0,0,0,0,0,0,0,0,0,0,0,0,0,0,0,0,0,0,0,0,0,0,0,0,0,0,0,0],"id":2,"left_children":[1,3,5,7,9,11,13,15,17,19,21,23,25,27,-1,29,31,33,35,37,39,41,43,45,47,49,-1,51,53,55,57,59,61,63,65,67,69,71,73,75,77,79,81,83,85,87,89,-1,91,-1,-1,-1,93,-1,-1,-1,95,-1,-1,97,99,101,103,105,107,109,111,113,115,117,119,121,123,125,-1,127,129,131,-1,133,135,137,139,141,143,145,147,149,151,153,155,157,-1,159,161,163,165,167,-1,169,171,173,175,177,179,181,-1,183,185,187,189,191,-1,193,195,197,199,201,203,205,207,-1,209,211,213,215,-1,217,219,221,223,225,227,229,231,233,235,237,239,241,243,245,247,249,-1,251,253,255,-1,-1,257,259,-1,261,-1,263,265,267,-1,269,271,-1,-1,-1,-1,-1,-1,-1,-1,-1,-1,-1,-1,-1,-1,-1,-1,-1,-1,-1,-1,-1,-1,-1,-1,-1,-1,-1,-1,-1,-1,-1,-1,-1,-1,-1,-1,-1,-1,-1,-1,-1,-1,-1,-1,-1,-1,-1,-1,-1,-1,-1,-1,-1,-1,-1,-1,-1,-1,-1,-1,-1,-1,-1,-1,-1,-1,-1,-1,-1,-1,-1,-1,-1,-1,-1,-1,-1,-1,-1,-1,-1,-1,-1,-1,-1,-1,-1,-1,-1,-1,-1,-1,-1,-1,-1,-1,-1,-1,-1,-1,-1,-1,-1,-1,-1,-1,-1,-1,-1,-1,-1,-1],"loss_changes":[4.7315312E3,3.4757383E3,3.353125E2,2.097502E3,1.0459375E3,1.203125E1,6.8055947E3,2.7636145E2,2.169967E3,3.0182017E3,2.3501367E2,9E0,6.188308E2,7.2148438E0,0E0,8.654846E0,4.0421802E2,9.1729175E2,4.2530548E2,3.3397998E2,1.6388282E3,1.4212035E2,1.0220117E2,3.1625E1,6.875E-1,5.250168E1,0E0,4.5810547E0,1.34603E2,1.8578491E0,7.036472E0,1.8409276E2,1.3404495E2,9.940708E2,8.780804E1,1.2756944E2,1.8808691E2,1.2393262E2,3.955493E2,2.263877E3,1.9111847E2,3.2849457E1,2.0240347E2,5.6972656E1,1.5645288E2,3.8359375E0,4.2605078E2,0E0,1.6608887E0,0E0,0E0,0E0,1.3733667E2,0E0,0E0,0E0,8.379669E-1,0E0,0E0,9.89061E1,2.1562431E2,2.338041E2,2.296521E1,1.2301754E1,1.6192627E2,3.6427883E1,4.1968094E1,3.289703E2,3.716948E1,2.855394E2,5.922888E1,7.011719E-1,8.2120996E2,1.2490719E1,0E0,2.0147217E1,3.0975493E3,1.26015076E2,0E0,3.5436325E1,1.3332977E1,7.643013E0,1.10826355E2,4.1409668E1,4.528379E2,8.1426624E2,1.5680298E2,3.4375E-1,1.9355121E2,6.809596E2,5.671875E0,2.0426025E0,0E0,2.4724854E1,7.659701E1,1.3747559E0,1.1188074E1,3.4655525E1,0E0,1.4129498E1,8.280165E1,1.4753622E2,2.7459656E1,9.672089E0,2.3597631E1,9.883232E0,0E0,5.136719E-1,1.2126001E2,3.2815777E1,2.4305779E1,8.6855316E-1,0E0,5.841774E1,8.41561E1,2.4028671E1,1.1064142E1,1.9143948E1,6.113281E-1,3.7814163E1,4.6056034E1,0E0,1.1680226E1,5.844799E2,8.409912E1,1.6924133E0,0E0,1.7705383E1,1.2528627E1,9.176318E1,5.416956E2,8.045969E1,1.0247742E1,2.3975601E0,4.7952927E1,7.2275696E0,3.2921112E1,6.088997E0,1.7302925E1,2.2020699E2,5.3572742E1,2.0971436E1,1.050155E2,1.4191406E1,0E0,2.1772827E1,4.2629675E2,1.6794678E1,0E0,0E0,1.7226562E0,3.8293327E1,0E0,2.1144116E2,0E0,4.953125E0,1.1482033E2,4.00354E0,0E0,3.0330002E2,7.7246094E-1,0E0,0E0,0E0,0E0,0E0,0E0,0E0,0E0,0E0,0E0,0E0,0E0,0E0,0E0,0E0,0E0,0E0,0E0,0E0,0E0,0E0,0E0,0E0,0E0,0E0,0E0,0E0,0E0,0E0,0E0,0E0,0E0,0E0,0E0,0E0,0E0,0E0,0E0,0E0,0E0,0E0,0E0,0E0,0E0,0E0,0E0,0E0,0E0,0E0,0E0,0E0,0E0,0E0,0E0,0E0,0E0,0E0,0E0,0E0,0E0,0E0,0E0,0E0,0E0,0E0,0E0,0E0,0E0,0E0,0E0,0E0,0E0,0E0,0E0,0E0,0E0,0E0,0E0,0E0,0E0,0E0,0E0,0E0,0E0,0E0,0E0,0E0,0E0,0E0,0E0,0E0,0E0,0E0,0E0,0E0,0E0,0E0,0E0,0E0,0E0,0E0,0E0,0E0,0E0,0E0,0E0,0E0,0E0,0E0,0E0,0E0,0E0],"parents":[2147483647,0,0,1,1,2,2,3,3,4,4,5,5,6,6,7,7,8,8,9,9,10,10,11,11,12,12,13,13,15,15,16,16,17,17,18,18,19,19,20,20,21,21,22,22,23,23,24,24,25,25,27,27,28,28,29,29,30,30,31,31,32,32,33,33,34,34,35,35,36,36,37,37,38,38,39,39,40,40,41,41,42,42,43,43,44,44,45,45,46,46,48,48,52,52,56,56,59,59,60,60,61,61,62,62,63,63,64,64,65,65,66,66,67,67,68,68,69,69,70,70,71,71,72,72,73,73,75,75,76,76,77,77,79,79,80,80,81,81,82,82,83,83,84,84,85,85,86,86,87,87,88,88,89,89,90,90,91,91,93,93,94,94,95,95,96,96,97,97,99,99,100,100,101,101,102,102,103,103,104,104,105,105,107,107,108,108,109,109,110,110,111,111,113,113,114,114,115,115,116,116,117,117,118,118,119,119,120,120,122,122,123,123,124,124,125,125,127,127,128,128,129,129,130,130,131,131,132,132,133,133,134,134,135,135,136,136,137,137,138,138,139,139,140,140,141,141,142,142,143,143,145,145,146,146,147,147,150,150,151,151,153,153,155,155,156,156,157,157,159,159,160,160],"right_children":[2,4,6,8,10,12,14,16,18,20,22,24,26,28,-1,30,32,34,36,38,40,42,44,46,48,50,-1,52,54,56,58,60,62,64,66,68,70,72,74,76,78,80,82,84,86,88,90,-1,92,-1,-1,-1,94,-1,-1,-1,96,-1,-1,98,100,102,104,106,108,110,112,114,116,118,120,122,124,126,-1,128,130,132,-1,134,136,138,140,142,144,146,148,150,152,154,156,158,-1,160,162,164,166,168,-1,170,172,174,176,178,180,182,-1,184,186,188,190,192,-1,194,196,198,200,202,204,206,208,-1,210,212,214,216,-1,218,220,222,224,226,228,230,232,234,236,238,240,242,244,246,248,250,-1,252,254,256,-1,-1,258,260,-1,262,-1,264,266,268,-1,270,272,-1,-1,-1,-1,-1,-1,-1,-1,-1,-1,-1,-1,-1,-1,-1,-1,-1,-1,-1,-1,-1,-1,-1,-1,-1,-1,-1,-1,-1,-1,-1,-1,-1,-1,-1,-1,-1,-1,-1,-1,-1,-1,-1,-1,-1,-1,-1,-1,-1,-1,-1,-1,-1,-1,-1,-1,-1,-1,-1,-1,-1,-1,-1,-1,-1,-1,-1,-1,-1,-1,-1,-1,-1,-1,-1,-1,-1,-1,-1,-1,-1,-1,-1,-1,-1,-1,-1,-1,-1,-1,-1,-1,-1,-1,-1,-1,-1,-1,-1,-1,-1,-1,-1,-1,-1,-1,-1,-1,-1,-1,-1,-1],"split_conditions":[-5.714286E-1,1E0,1E0,1E1,1E1,1E0,-5.5172414E-1,-5.862069E-1,1E1,1E1,1E0,-1.0344828E-1,1E0,1E0,2.8432843E-1,1E0,-4.4827586E-1,2.7586207E-1,1.2E1,1E0,2.0689656E-1,1.2E1,1.2E1,-5.5172414E-1,1.5714285E0,1E0,-8.921078E-2,1E1,1E1,8E0,1E0,1E1,1.0344828E-1,-5.862069E-1,4.827586E-1,-5.1724136E-1,-3.7931034E-1,-5.862069E-1,-5.862069E-1,-5.862069E-1,1E0,1E0,9E0,-5.1724136E-1,-2.7586207E-1,1E0,-4.4827586E-1,-8.905971E-2,2.7142856E0,-6.3993126E-2,2.937293E-1,-8.920728E-2,2.857143E-1,-8.78942E-2,3.6146423E-1,-8.790456E-2,1E0,-5.3997505E-2,1.4956462E-1,3E0,1.1E1,1E1,1E0,1E0,-3.448276E-1,4E0,1E0,1.1E1,1E0,-5.862069E-1,3E0,1E0,-4.4827586E-1,3.1E1,2.7767402E-1,1E0,-3.448276E-1,5.1724136E-1,2.6113582E-1,1.3E1,1.5E1,5E0,-2.7586207E-1,1.3E1,1E0,-5.862069E-1,1E0,1E1,1E0,1E0,1E0,4.827586E-1,-8.9226626E-2,1.1E1,1E0,1.2E1,6E0,3E0,2.878353E-1,1E0,3E0,6E0,1.2E1,1E0,4.1379312E-1,3E0,1.3738455E-1,2E0,3E0,1E0,3E0,6E0,2.4964401E-1,1.1E1,-5.862069E-1,-1.0344828E-1,1E0,7E0,1E0,2.7586207E-1,1.3793103E-1,-8.8368006E-2,9E0,5E0,1.724138E-1,4E0,1.1614496E-1,1E0,1.2E1,-4.827586E-1,1E0,3E0,1E0,1E0,-5.5172414E-1,1.3E1,1.1E1,1E0,6E0,-5.862069E-1,1E0,1.1E1,-5.862069E-1,1E0,2.9720393E-1,1.1E1,-4.1379312E-1,2.413793E-1,2.5550944E-1,-8.920059E-2,1E0,1E0,-8.907199E-2,1E0,2.5343373E-1,1E0,1E0,6.896552E-2,-8.905938E-2,-2.857143E-1,1.4285715E-1,-6.841878E-2,4.016775E-1,-6.627897E-2,-8.4821336E-2,-8.010675E-2,1.1633052E-1,-4.2351775E-2,1.4470825E-1,2.0319583E-2,-7.9918966E-2,1.8995205E-2,2.9807854E-1,-5.615598E-3,1.2734118E-1,-6.7199536E-2,-7.7867447E-3,-7.2861254E-2,-4.4867266E-3,9.903569E-2,-7.915518E-2,3.031042E-2,-7.016677E-2,1.8484157E-1,3.1832972E-1,1.7120941E-1,2.6953384E-1,1.8689373E-1,-1.3807452E-2,7.832086E-3,1.7672913E-1,-8.775418E-2,-5.3913705E-2,-6.1932445E-2,2.7529847E-2,1.08747825E-1,3.010831E-1,-5.2018777E-2,-1.8696126E-2,3.653626E-2,2.1593578E-1,1.1430919E-1,-4.643034E-2,3.4008923E-1,1.1336019E-1,1.4317423E-1,4.676919E-3,5.6498773E-2,-5.6465954E-2,-8.388713E-2,1.0589598E-1,-2.9883955E-2,1.9918369E-1,-6.270331E-2,-8.509205E-2,-8.700773E-2,-4.0376786E-2,-7.579878E-2,7.175471E-2,1.87106E-1,-5.643176E-2,2.2520497E-1,3.0663845E-1,1.2454348E-2,2.7983865E-1,-5.91725E-2,-1.2910406E-2,-8.511078E-2,7.076604E-2,-7.680041E-2,-1.8246792E-2,8.496875E-2,-2.8807929E-2,-5.912638E-2,-8.5187875E-2,-7.486855E-2,-5.2178395E-3,-8.776704E-2,1.5741287E-2,4.605919E-2,-6.470152E-2,-1.6384874E-2,3.1639358E-1,5.993638E-4,2.482163E-1,-8.338676E-2,-6.817369E-2,-7.433464E-2,-3.3012636E-2,1.2404041E-1,-8.43473E-2,-8.55266E-2,-5.6811213E-2,1.3920505E-1,-3.709912E-2,-7.422696E-2,-8.759881E-2,-8.8554054E-2,-7.607807E-2,-6.2343616E-2,2.702631E-1,2.332721E-2,-6.62296E-2,-8.8522434E-2,-7.0840545E-2,2.4602485E-1,-8.863389E-2,-8.894678E-2,-7.5134665E-2,-7.7859536E-2,3.8793698E-1,-8.919983E-2,-6.261077E-2],"split_indices":[10,32,69,1,4,55,9,9,4,1,20,9,73,10,0,51,9,9,4,69,9,4,4,9,10,5,0,4,4,1,7,4,9,9,9,9,9,9,9,9,69,5,1,9,9,58,9,0,10,0,0,0,10,0,0,0,58,0,0,1,4,4,71,13,9,4,13,4,12,9,2,22,9,3,0,19,9,9,0,3,1,1,9,3,69,9,69,4,73,10,58,9,0,4,7,3,2,4,0,5,1,1,4,74,9,3,0,3,4,20,2,2,0,3,9,9,50,3,29,9,9,0,1,1,9,2,0,11,1,9,69,4,38,69,9,3,4,45,1,9,42,4,9,50,0,1,9,9,0,0,66,5,0,67,0,52,73,9,0,10,10,0,0,0,0,0,0,0,0,0,0,0,0,0,0,0,0,0,0,0,0,0,0,0,0,0,0,0,0,0,0,0,0,0,0,0,0,0,0,0,0,0,0,0,0,0,0,0,0,0,0,0,0,0,0,0,0,0,0,0,0,0,0,0,0,0,0,0,0,0,0,0,0,0,0,0,0,0,0,0,0,0,0,0,0,0,0,0,0,0,0,0,0,0,0,0,0,0,0,0,0,0,0,0,0,0,0,0,0,0,0,0,0],"split_type":[0,0,0,0,0,0,0,0,0,0,0,0,0,0,0,0,0,0,0,0,0,0,0,0,0,0,0,0,0,0,0,0,0,0,0,0,0,0,0,0,0,0,0,0,0,0,0,0,0,0,0,0,0,0,0,0,0,0,0,0,0,0,0,0,0,0,0,0,0,0,0,0,0,0,0,0,0,0,0,0,0,0,0,0,0,0,0,0,0,0,0,0,0,0,0,0,0,0,0,0,0,0,0,0,0,0,0,0,0,0,0,0,0,0,0,0,0,0,0,0,0,0,0,0,0,0,0,0,0,0,0,0,0,0,0,0,0,0,0,0,0,0,0,0,0,0,0,0,0,0,0,0,0,0,0,0,0,0,0,0,0,0,0,0,0,0,0,0,0,0,0,0,0,0,0,0,0,0,0,0,0,0,0,0,0,0,0,0,0,0,0,0,0,0,0,0,0,0,0,0,0,0,0,0,0,0,0,0,0,0,0,0,0,0,0,0,0,0,0,0,0,0,0,0,0,0,0,0,0,0,0,0,0,0,0,0,0,0,0,0,0,0,0,0,0,0,0,0,0,0,0,0,0,0,0,0,0,0,0,0,0,0,0,0,0,0,0,0,0,0,0,0,0],"sum_hessian":[3.737355E5,4.150266E4,3.3223284E5,3.8427122E3,3.7659945E4,3.2446397E5,7.768863E3,1.9400803E3,1.9026317E3,1.3172733E4,2.4487213E4,3.2312366E5,1.3403203E3,7.440899E3,3.2796384E2,7.2996045E2,1.2101199E3,7.528736E2,1.149758E3,8.825796E3,4.346937E3,9.539314E2,2.3533281E4,1.2715523E5,1.9596842E5,3.1579805E1,1.3087406E3,7.371233E3,6.966635E1,7.273929E2,2.567522E0,1.517087E2,1.0584113E3,6.126568E2,1.4021677E2,9.198279E2,2.2993025E2,8.743052E3,8.274396E1,2.6607864E3,1.6861509E3,7.2591766E2,2.2801378E2,1.9381059E4,4.1522236E3,9.195694E4,3.519829E4,1.9338375E5,2.584686E3,2.524305E0,2.9055502E1,5.203346E3,2.1678865E3,6.609028E1,3.5760715E0,5.411826E2,1.862103E2,1.5201468E0,1.0473751E0,6.2822548E1,8.888614E1,5.2700336E2,5.314079E2,7.305355E1,5.396033E2,7.2172295E1,6.804447E1,2.5701996E2,6.628079E2,6.631539E1,1.6361485E2,3.7289136E3,5.0141387E3,4.6426117E1,3.631784E1,7.413845E2,1.9194017E3,1.6750371E3,1.1113688E1,2.1465308E2,5.1126456E2,1.0657108E2,1.2144269E2,6.091025E3,1.3290033E4,1.4421558E3,2.710068E3,9.1440055E4,5.168814E2,2.3560266E3,3.284226E4,1.1596597E3,1.4250265E3,2.159881E3,8.0052185E0,1.7625056E2,9.959732E0,2.6579973E1,3.6242573E1,5.976874E1,2.9117403E1,2.1566028E2,3.1134308E2,5.1406305E2,1.7344805E1,7.1912865E1,1.1406865E0,1.9974565E2,3.3985764E2,4.620864E1,2.5963652E1,6.646822E1,1.5762519E0,1.9228677E2,6.47332E1,6.538566E2,8.95127E0,2.3970964E1,4.234443E1,6.84136E1,9.5201256E1,3.7117898E3,1.712386E1,2.978348E2,4.7163037E3,4.508252E1,1.3435975E0,7.3746906E2,3.9154625E0,5.938991E2,1.3255027E3,9.898215E2,6.8521564E2,7.4635E1,1.4001807E2,3.2779358E2,1.8347098E2,6.0776512E1,4.5794575E1,5.1001263E1,7.044142E1,3.510778E3,2.580247E3,1.3271044E4,1.8988802E1,1.0891487E3,3.5300708E2,2.7020322E3,8.035909E0,5.789747E4,3.354259E4,1.3174882E1,5.0370654E2,2.3115137E3,4.4513084E1,3.2729418E4,1.1284511E2,7.1095483E2,4.487048E2,2.9272974E2,1.8671515E3,3.1666055E0,4.838613E0,7.1699265E1,1.045513E2,8.584712E0,1.37502E0,9.071691E0,1.7508282E1,1.0531735E1,4.9237003E1,1.0692522E1,1.8424881E1,1.2138086E2,9.427942E1,2.4880962E2,6.2533463E1,5.003238E2,1.37392845E1,9.802798E0,7.542006E0,6.3620095E0,6.555086E1,4.933964E0,1.9481168E2,1.6461844E2,1.752392E2,4.9517417E0,4.12569E1,7.7476225E0,1.821603E1,5.420094E1,1.226728E1,1.14712E2,7.7574776E1,4.1493526E1,2.3239674E1,4.5212943E2,2.0172719E2,5.829758E0,3.121512E0,5.247224E0,1.8723742E1,4.100201E1,1.3424176E0,5.173836E1,1.6675238E1,5.83537E1,3.6847557E1,1.5617992E1,1.5058666E0,1.8178075E2,1.16054054E2,1.6923326E3,3.023971E3,3.6238533E1,8.843985E0,7.3296686E2,4.5021734E0,2.2092588E0,1.7062037E0,4.7225143E2,1.216477E2,1.2760898E3,4.9412884E1,5.758623E2,4.1395917E2,6.832095E2,2.0062103E0,6.907496E1,5.5600443E0,2.9080769E1,1.109373E2,1.1980675E2,2.0798683E2,1.1308556E2,7.038542E1,5.7194576E1,3.5819325E0,1.1302372E1,3.4492203E1,2.1866568E1,2.9134697E1,6.5325485E1,5.1159406E0,2.7303691E3,7.804088E2,2.092557E3,4.8769006E2,1.2556254E0,1.3269788E4,8.683709E2,2.2077774E2,1.9400124E2,1.5900583E2,1.6786807E3,1.02335156E3,3.3422023E4,1.20567856E2,2.3186793E0,1.0856203E1,1.8275287E2,2.1287607E3,3.2603453E4,1.259651E2,6.0340014E0,1.06811104E2,2.7106482E2,4.3989E2,2.8447394E2,8.255802E0,1.8497837E3,1.7367737E1],"tree_param":{"num_deleted":"0","num_feature":"75","num_nodes":"273","size_leaf_vector":"1"}},{"base_weights":[-1.0507584E0,-7.2124356E-1,-1.0928885E0,-9.976149E-1,1.3545084E-1,-1.1004149E0,-8.715837E-1,-1.0446047E0,-5.793854E-1,-9.6208596E-1,4.1430883E0,-8.845154E-2,-8.913314E-1,-9.397815E-1,2.8410634E-1,-9.6713114E-1,-1.0649886E0,-9.5175E-1,-3.3455336E-1,-1.0085087E0,1.0525419E0,3.8229249E0,4.553104E0,-1.0865953E0,2.3375538E-1,-9.696453E-1,3.276451E0,-1.0746993E0,-8.55924E-1,-1.0671402E0,2.3370318E-1,-5.7975304E-1,-1.011137E0,-8.689123E-1,-1.297395E-1,-1.0118443E0,5.0293237E-1,1.9109449E0,-1.4873677E-1,4.0377545E0,3.3670657E0,4.7322574E0,2.3451428E-1,-1.088609E0,-5.7708186E-1,-1.0941117E-1,-1.0510957E0,3.0388445E-1,-9.813281E-2,-1.0764072E0,5.3870046E-1,-8.8007075E-1,-3.9157647E-1,-1.0680072E0,-2.4164204E-1,-1.0477049E0,-5.670038E-2,-9.174678E-1,-1.0888023E0,-8.871501E-2,-7.404719E-1,4.5127783E-2,-9.2536134E-1,-1.0570992E0,-4.9639925E-1,-4.7363583E-2,2.658062E0,-3.274552E-1,2.7447304E-1,4.1140275E0,2.565528E-1,3.258839E-1,2.5264812E-1,4.90488E0,2.7999082E-1,-1.0772437E0,-8.840834E-2,9.3542945E-1,-8.4577724E-2,-5.110468E-1,2.8062568E0,-1.0064029E0,-1.0946306E0,2.0088676E-1,-7.888524E-2,-8.86639E-1,-1.0853182E0,1.42383E-1,-5.5007905E-2,1.382261E-1,-8.925429E-1,-8.3006084E-1,3.618019E-1,-8.589268E-1,-1.0701487E0,-6.2218666E-1,2.2334729E-1,-8.831542E-2,2.757817E-1,1.1591345E0,-9.8195654E-1,-9.520819E-1,-1.0837429E-1,-1.0975407E0,-6.3902646E-1,-4.9216568E-1,-8.785248E-1,-4.832958E-1,7.8662044E-1,-5.1541466E-1,-1.0761073E0,-8.589028E-1,-1.0885775E0,3.4946612E-1,-1.0387291E0,-8.454017E-2,1.8354725E0,3.3761707E-1,3.1790676E0,-7.53111E-1,3.4404832E-1,3.4402132E-1,2.98108E-1,4.0809214E-1,3.6057478E-1,-1.0794975E0,-4.964702E-1,-6.646257E-2,1.8182631E-1,-8.667051E-1,-1.779479E-1,4.1955343E-1,2.0201223E0,-1.0252125E0,-5.195121E-1,-8.7735325E-2,-6.525065E-1,-8.787855E-2,-2.5932394E-2,-8.769749E-2,-8.137683E-2,4.9972076E-2,-8.139301E-2,-7.169144E-2,1.458157E-1,-7.219169E-2,2.2619276E-1,4.0072683E-2,-7.026135E-2,-8.474162E-2,-8.778553E-2,6.29269E-2,-8.496531E-2,-6.1026137E-2,1.3127899E-1,-2.6030153E-2,1.21168815E-1,-8.71449E-2,8.502033E-2,-8.329087E-2,-5.5372857E-2,-8.427923E-2,1.9119701E-1,-6.447066E-2,-8.85266E-2,7.225576E-2,-8.049298E-2,-5.0416153E-2,1.3841598E-1,-7.4969895E-2,-1.5806556E-3,-4.145791E-2,3.2674533E-1,8.851209E-2,-8.603898E-2,-5.0512828E-2,6.938727E-2,-8.836259E-2,-5.299185E-2,-8.574666E-2,-4.1355815E-2,-6.21816E-2,-8.761007E-2,7.542473E-2,-6.74119E-2,-8.739541E-2,3.3422735E-1,2.546701E-1,-6.86714E-2,-7.647102E-2,1.0627127E-1,1.9916861E-1,3.9273638E-1,-1.2451255E-2,-8.704949E-2,-1.0860939E-2,1.3102256E-1,-8.758542E-2,-8.3887585E-2,8.294173E-2,-8.201965E-2,-4.6494063E-2,-7.603897E-2,6.477337E-1,-3.0263105E-2,-6.633069E-2,2.3552074E-1,-8.639358E-2,-7.6735005E-2,3.8806444E-1,-7.5348176E-2,3.1097108E-1,-8.542787E-2],"categories":[],"categories_nodes":[],"categories_segments":[],"categories_sizes":[],"default_left":[0,0,0,0,0,0,0,0,0,0,0,0,0,0,0,0,0,0,0,0,0,0,0,0,0,0,0,0,0,0,0,0,0,0,0,0,0,0,0,0,0,0,0,0,0,0,0,0,0,0,0,0,0,0,0,0,0,0,0,0,0,0,0,0,0,0,0,0,0,0,0,0,0,0,0,0,0,0,0,0,0,0,0,0,0,0,0,0,0,0,0,0,0,0,0,0,0,0,0,0,0,0,0,0,0,0,0,0,0,0,0,0,0,0,0,0,0,0,0,0,0,0,0,0,0,0,0,0,0,0,0,0,0,0,0,0,0,0,0,0,0,0,0,0,0,0,0,0,0,0,0,0,0,0,0,0,0,0,0,0,0,0,0,0,0,0,0,0,0,0,0,0,0,0,0,0,0,0,0,0,0,0,0,0,0,0,0,0,0,0,0,0,0,0,0,0,0,0,0,0,0,0,0,0,0,0,0,0,0,0,0,0,0],"id":3,"left_children":[1,3,5,7,9,11,13,15,17,19,21,-1,23,25,-1,27,29,31,33,35,37,39,41,43,-1,45,47,49,51,53,-1,55,57,59,61,63,-1,65,67,69,71,73,-1,75,77,79,81,-1,83,85,87,89,91,93,95,97,99,101,103,-1,105,107,109,111,113,115,117,119,-1,121,-1,-1,-1,123,-1,125,-1,127,-1,129,131,133,135,-1,-1,137,139,-1,-1,141,143,145,-1,147,149,151,-1,-1,153,155,157,159,161,163,165,167,169,171,173,175,177,179,181,183,185,-1,187,189,191,193,195,-1,-1,-1,-1,197,199,-1,-1,201,203,-1,205,207,209,-1,211,-1,-1,-1,-1,-1,-1,-1,-1,-1,-1,-1,-1,-1,-1,-1,-1,-1,-1,-1,-1,-1,-1,-1,-1,-1,-1,-1,-1,-1,-1,-1,-1,-1,-1,-1,-1,-1,-1,-1,-1,-1,-1,-1,-1,-1,-1,-1,-1,-1,-1,-1,-1,-1,-1,-1,-1,-1,-1,-1,-1,-1,-1,-1,-1,-1,-1,-1,-1,-1,-1,-1,-1,-1,-1,-1,-1],"loss_changes":[4.8437188E3,9.367082E3,5.1440625E2,5.8725195E2,4.2452656E4,3.2615625E2,3.0743613E3,4.1435547E1,2.7533032E2,7.096704E2,2.5497656E2,0E0,5.4437075E3,1.2657715E3,0E0,6.621338E1,1.856211E2,2.5898804E1,1.9970012E2,1.8659131E2,1.7676659E2,1.0111719E2,2.4893164E2,6.5039062E0,0E0,6.9758984E2,1.2503381E2,8.429932E0,3.064978E1,1.4964844E1,0E0,4.0910618E1,6.512207E0,1.47690735E1,1.8383095E2,1.7218457E2,0E0,1.462742E2,4.7348785E1,3.6942383E1,4.3415527E1,1.5577734E2,0E0,1.07421875E-1,2.2407148E1,1.0113434E3,1.6597656E1,0E0,2.6698254E1,3.8503418E0,6.82286E0,3.348523E1,3.0206503E2,8.591797E0,2.8989193E1,6.8758163E0,9.12439E1,1.3182068E1,1.4960327E0,0E0,1.0963211E1,4.2508972E2,1.4157654E1,4.1524414E1,2.7536594E2,5.6233032E1,8.6362274E1,2.0190655E1,0E0,3.6039062E1,0E0,0E0,0E0,3.2472656E1,0E0,4.8813477E0,0E0,1.992785E1,0E0,8.97449E1,1.8983374E2,4.068799E1,3.4731445E0,0E0,0E0,1.5505745E1,8.9990234E-1,0E0,0E0,1.8989353E1,2.7001953E1,3.640159E1,0E0,6.2380524E0,5.0527344E0,1.4340954E1,0E0,0E0,7.4889145E0,1.9000523E1,1.1260582E1,9.806183E0,5.1135513E1,5.508423E-1,8.297176E0,3.822692E1,1.0668777E1,1.03186874E2,2.6999258E2,1.1121824E1,1.3044739E0,6.770648E1,1.1113281E1,1.669806E2,1.0698547E2,0E0,4.0261692E1,1.969857E1,5.8088623E1,8.435883E0,1.7441788E1,0E0,0E0,0E0,0E0,8.0322266E-1,1.553487E1,0E0,0E0,8.220673E0,6.547305E2,0E0,2.1487302E2,1.4612793E1,3.888752E2,0E0,4.9019306E1,0E0,0E0,0E0,0E0,0E0,0E0,0E0,0E0,0E0,0E0,0E0,0E0,0E0,0E0,0E0,0E0,0E0,0E0,0E0,0E0,0E0,0E0,0E0,0E0,0E0,0E0,0E0,0E0,0E0,0E0,0E0,0E0,0E0,0E0,0E0,0E0,0E0,0E0,0E0,0E0,0E0,0E0,0E0,0E0,0E0,0E0,0E0,0E0,0E0,0E0,0E0,0E0,0E0,0E0,0E0,0E0,0E0,0E0,0E0,0E0,0E0,0E0,0E0,0E0,0E0,0E0,0E0,0E0,0E0,0E0,0E0,0E0,0E0,0E0,0E0,0E0],"parents":[2147483647,0,0,1,1,2,2,3,3,4,4,5,5,6,6,7,7,8,8,9,9,10,10,12,12,13,13,15,15,16,16,17,17,18,18,19,19,20,20,21,21,22,22,23,23,25,25,26,26,27,27,28,28,29,29,31,31,32,32,33,33,34,34,35,35,37,37,38,38,39,39,40,40,41,41,43,43,44,44,45,45,46,46,48,48,49,49,50,50,51,51,52,52,53,53,54,54,55,55,56,56,57,57,58,58,60,60,61,61,62,62,63,63,64,64,65,65,66,66,67,67,69,69,73,73,75,75,77,77,79,79,80,80,81,81,82,82,85,85,86,86,89,89,90,90,91,91,93,93,94,94,95,95,98,98,99,99,100,100,101,101,102,102,103,103,104,104,105,105,106,106,107,107,108,108,109,109,110,110,111,111,112,112,113,113,114,114,116,116,117,117,118,118,119,119,120,120,125,125,126,126,129,129,130,130,132,132,133,133,134,134,136,136],"right_children":[2,4,6,8,10,12,14,16,18,20,22,-1,24,26,-1,28,30,32,34,36,38,40,42,44,-1,46,48,50,52,54,-1,56,58,60,62,64,-1,66,68,70,72,74,-1,76,78,80,82,-1,84,86,88,90,92,94,96,98,100,102,104,-1,106,108,110,112,114,116,118,120,-1,122,-1,-1,-1,124,-1,126,-1,128,-1,130,132,134,136,-1,-1,138,140,-1,-1,142,144,146,-1,148,150,152,-1,-1,154,156,158,160,162,164,166,168,170,172,174,176,178,180,182,184,186,-1,188,190,192,194,196,-1,-1,-1,-1,198,200,-1,-1,202,204,-1,206,208,210,-1,212,-1,-1,-1,-1,-1,-1,-1,-1,-1,-1,-1,-1,-1,-1,-1,-1,-1,-1,-1,-1,-1,-1,-1,-1,-1,-1,-1,-1,-1,-1,-1,-1,-1,-1,-1,-1,-1,-1,-1,-1,-1,-1,-1,-1,-1,-1,-1,-1,-1,-1,-1,-1,-1,-1,-1,-1,-1,-1,-1,-1,-1,-1,-1,-1,-1,-1,-1,-1,-1,-1,-1,-1,-1,-1,-1,-1],"split_conditions":[-5.714286E-1,-3E-1,1E0,1E0,-5.862069E-1,1E0,1E0,-4.827586E-1,9E0,1.8E1,-3.448276E-1,-8.845154E-2,-5.5172414E-1,9E-1,2.8410634E-1,-3.2318875E-1,1E0,-2.994127E-1,1E0,1E0,4.8654962E-1,2.5E-1,1E0,1.1428572E0,2.3375538E-1,-4.4827586E-1,2.857143E0,1E0,1E0,1E0,2.3370318E-1,-1.0344828E-1,6.896552E-2,-3.5623646E-1,1.724138E-1,1.2E1,5.0293237E-1,-3.766635E-1,9.23362E0,1E0,-5.5172414E-1,1.75E0,2.3451428E-1,4.5E-1,5.5E-1,1E-1,2.0689656E-1,3.0388445E-1,-5.1724136E-1,7E0,1.2E1,1E0,-1.7983103E-2,1E0,2.3E1,1E0,6.896552E-2,1E0,1E0,-8.871501E-2,-4.4827586E-1,-1.724138E-1,2.7586207E-1,-1E-1,1E0,1.6E1,-2.5E-1,-2E-1,2.7447304E-1,1E0,2.565528E-1,3.258839E-1,2.5264812E-1,1E0,2.7999082E-1,8.5714287E-1,-8.840834E-2,2E1,-8.4577724E-2,-2E-1,5.714286E-1,4E-1,7.5E-1,2.0088676E-1,-7.888524E-2,-5.862069E-1,-4.3170846E-1,1.42383E-1,-5.5007905E-2,1.0635804E0,1E0,-5.862069E-1,3.618019E-1,1E0,2.0689656E-1,-3.1034482E-1,2.2334729E-1,-8.831542E-2,-5.074144E-1,3E0,1E0,-6.896552E-2,8E0,-1.9513083E-1,1.724138E-1,9.23362E0,1E0,1E0,1.681043E0,1E0,1E0,3E0,-2.0622471E-1,9E-1,-1.2049639E-2,-8.454017E-2,3E-1,2.1E1,1E0,1.2E1,1E0,3.4402132E-1,2.98108E-1,4.0809214E-1,3.6057478E-1,1E0,9E0,-6.646257E-2,1.8182631E-1,1E1,-2.857143E-1,4.1955343E-1,2E-1,-1E-1,1.4285715E0,-8.7735325E-2,1.5714285E0,-8.787855E-2,-2.5932394E-2,-8.769749E-2,-8.137683E-2,4.9972076E-2,-8.139301E-2,-7.169144E-2,1.458157E-1,-7.219169E-2,2.2619276E-1,4.0072683E-2,-7.026135E-2,-8.474162E-2,-8.778553E-2,6.29269E-2,-8.496531E-2,-6.1026137E-2,1.3127899E-1,-2.6030153E-2,1.21168815E-1,-8.71449E-2,8.502033E-2,-8.329087E-2,-5.5372857E-2,-8.427923E-2,1.9119701E-1,-6.447066E-2,-8.85266E-2,7.225576E-2,-8.049298E-2,-5.0416153E-2,1.3841598E-1,-7.4969895E-2,-1.5806556E-3,-4.145791E-2,3.2674533E-1,8.851209E-2,-8.603898E-2,-5.0512828E-2,6.938727E-2,-8.836259E-2,-5.299185E-2,-8.574666E-2,-4.1355815E-2,-6.21816E-2,-8.761007E-2,7.542473E-2,-6.74119E-2,-8.739541E-2,3.3422735E-1,2.546701E-1,-6.86714E-2,-7.647102E-2,1.0627127E-1,1.9916861E-1,3.9273638E-1,-1.2451255E-2,-8.704949E-2,-1.0860939E-2,1.3102256E-1,-8.758542E-2,-8.3887585E-2,8.294173E-2,-8.201965E-2,-4.6494063E-2,-7.603897E-2,6.477337E-1,-3.0263105E-2,-6.633069E-2,2.3552074E-1,-8.639358E-2,-7.6735005E-2,3.8806444E-1,-7.5348176E-2,3.1097108E-1,-8.542787E-2],"split_indices":[10,8,70,5,9,69,5,9,1,1,9,0,9,8,0,0,69,0,50,70,0,8,69,10,0,9,10,34,69,24,0,9,9,0,9,1,0,0,0,69,9,8,0,8,8,8,9,0,9,3,1,20,0,20,1,66,9,61,36,0,9,9,9,8,69,3,8,8,0,5,0,0,0,5,0,10,0,3,0,8,10,8,8,0,0,9,0,0,0,0,33,9,0,50,9,9,0,0,0,1,31,9,1,0,9,0,41,70,0,54,31,1,0,8,0,0,8,1,5,3,72,0,0,0,0,7,1,0,0,3,10,0,8,8,10,0,10,0,0,0,0,0,0,0,0,0,0,0,0,0,0,0,0,0,0,0,0,0,0,0,0,0,0,0,0,0,0,0,0,0,0,0,0,0,0,0,0,0,0,0,0,0,0,0,0,0,0,0,0,0,0,0,0,0,0,0,0,0,0,0,0,0,0,0,0,0,0,0,0,0,0,0,0],"split_type":[0,0,0,0,0,0,0,0,0,0,0,0,0,0,0,0,0,0,0,0,0,0,0,0,0,0,0,0,0,0,0,0,0,0,0,0,0,0,0,0,0,0,0,0,0,0,0,0,0,0,0,0,0,0,0,0,0,0,0,0,0,0,0,0,0,0,0,0,0,0,0,0,0,0,0,0,0,0,0,0,0,0,0,0,0,0,0,0,0,0,0,0,0,0,0,0,0,0,0,0,0,0,0,0,0,0,0,0,0,0,0,0,0,0,0,0,0,0,0,0,0,0,0,0,0,0,0,0,0,0,0,0,0,0,0,0,0,0,0,0,0,0,0,0,0,0,0,0,0,0,0,0,0,0,0,0,0,0,0,0,0,0,0,0,0,0,0,0,0,0,0,0,0,0,0,0,0,0,0,0,0,0,0,0,0,0,0,0,0,0,0,0,0,0,0,0,0,0,0,0,0,0,0,0,0,0,0,0,0,0,0,0,0],"sum_hessian":[3.4896506E5,3.9561066E4,3.09404E5,2.9911418E4,9.649648E3,2.9922366E5,1.0180335E4,2.6888854E4,3.0225645E3,7.575714E3,2.0739348E3,2.9191797E5,7.3056997E3,1.0026521E4,1.5381337E2,5.6111064E3,2.1277748E4,1.1978575E3,1.8247068E3,7.405568E3,1.701458E2,1.1703682E3,9.035668E2,6.9505044E3,3.5519522E2,9.956767E3,6.975435E1,2.8478147E3,2.763292E3,2.1267E4,1.0746489E1,1.6638614E2,1.0314714E3,5.0470087E2,1.3200059E3,7.4030444E3,2.5236363E0,9.889045E1,7.125535E1,7.9014417E2,3.8022394E2,8.119491E2,9.161768E1,6.922011E3,2.8492838E1,8.614065E2,9.09536E3,6.029938E1,9.454964E0,2.8451357E3,2.6789002E0,2.6258489E3,1.3744305E2,2.1244393E4,2.2607689E1,8.728926E1,7.909688E1,4.7337067E2,5.5810077E2,1.7326839E2,3.3143246E2,1.0829343E3,2.3707153E2,6.8045674E3,5.984771E2,2.7567755E1,7.13227E1,6.873232E1,2.5230227E0,7.200874E2,7.005679E1,8.257016E1,2.9765378E2,7.0957635E2,1.0237272E2,4.137536E3,2.7844756E3,6.6370144E0,2.1855824E1,7.578384E2,1.0356814E2,4.499899E3,4.5954614E3,1.9364967E0,7.5184665E0,1.3211565E2,2.7130203E3,1.1071007E0,1.5717994E0,3.165042E1,2.5941985E3,1.2694671E2,1.0496347E1,2.1946579E2,2.1024928E4,2.0794014E1,1.8136754E0,8.389046E1,3.3988032E0,3.407188E1,4.5025E1,4.5378058E2,1.9590092E1,5.460518E2,1.2048993E1,1.2005779E2,2.1137468E2,6.325189E2,4.5041544E2,6.4926346E1,1.7214519E2,9.364812E2,5.868086E3,2.3394753E2,3.6452954E2,1.823221E1,9.335545E0,1.3379838E1,5.794286E1,4.199243E1,2.6739893E1,4.795979E2,2.404895E2,4.6718332E2,2.4239305E2,4.1206855E3,1.6850248E1,3.0232384E0,3.613776E0,3.6573346E2,3.9210492E2,2.3868845E1,7.969929E1,4.331459E3,1.6843979E2,4.572665E3,2.2796505E1,9.527881E1,3.6836845E1,2.3257039E3,3.8731628E2,2.2598051E1,9.052368E0,2.5914324E3,2.7659945E0,1.2522338E2,1.7233231E0,2.7283916E0,2.167374E2,1.504228E4,5.982647E3,4.760309E0,1.6033705E1,2.180886E0,1.2179172E0,6.5988636E0,2.7473015E1,4.3222897E1,1.8021047E0,3.35743E2,1.1803757E2,1.4632839E1,4.9572515E0,1.9129536E1,5.2692224E2,2.0360525E0,1.001294E1,1.1371134E2,6.3464475E0,1.977872E2,1.3587482E1,6.2859863E2,3.9202871E0,3.8474823E2,6.566718E1,6.040269E1,4.523656E0,1.5951538E2,1.2629805E1,5.7580273E2,3.6067847E2,1.2335865E2,5.7447275E3,1.5634177E2,7.760577E1,3.615969E2,2.9326725E0,6.101087E0,3.2344575E0,5.8185887E0,7.5612493E0,4.3176132E1,1.4766729E1,1.561263E1,2.6379803E1,2.0158665E1,6.5812287E0,2.7318992E3,1.3887866E3,4.0746517E0,1.2775597E1,8.4770874E1,2.809626E2,8.337307E0,3.837676E2,1.9540182E1,6.0159107E1,2.360351E3,1.9711079E3,1.1516373E1,1.5692342E2,1.2102046E0,2.15863E1],"tree_param":{"num_deleted":"0","num_feature":"75","num_nodes":"213","size_leaf_vector":"1"}},{"base_weights":[-1.0389519E0,-8.84556E-1,-1.0523111E0,-9.125065E-1,2.9020612E0,-1.0596745E0,-7.9013336E-1,-4.5765528E-1,-9.609543E-1,3.2781926E-1,2.2741246E-1,-1.064437E0,-9.325488E-1,-1.0409623E0,2.0427354E-1,-2.8435194E-1,-1.0168996E0,-9.003964E-1,-1.0672803E0,-1.0659608E0,-7.319491E-1,-9.575574E-1,2.657104E0,-1.0632266E0,3.3546152E0,3.9676335E-1,-5.476782E-1,-1.0404116E0,7.3253855E-2,-7.7615744E-1,-1.0537292E0,-1.0762776E0,2.4692743E0,-9.7732186E-1,-1.0701352E0,-9.7032815E-1,8.6020917E-1,-3.2124802E-1,-1.0411758E0,2.7757826E0,-6.1490964E-2,-1.0685977E0,2.2636268E-1,3.3450323E-1,2.1812694E-1,1.552188E0,-3.8409404E-2,-6.623014E-1,3.957173E-2,-1.0487537E0,7.4803895E-1,-7.8040525E-2,1.7282865E0,-3.0209908E-1,-9.4745284E-1,-1.0912868E0,3.176335E-1,-1.0773449E0,3.1549942E-1,-5.1953223E-2,2.1765865E-1,-9.245739E-1,-1.0704111E0,-1.0566274E0,-1.0886024E0,-2.275428E-1,-1.0442698E0,-3.1309578E-1,1.4581358E0,-6.1664504E-1,2.4832616E0,-1.0541996E0,-8.8131624E-1,2.8668916E0,-5.475702E-2,-1.0710111E0,2.3169804E-1,-8.464399E-1,1.963153E0,-7.1700484E-1,6.6762114E-1,-9.472328E-1,-5.1356035E-1,-5.9472686E-1,3.7710184E-1,-1.0778704E0,-8.9131343E-1,1.3137858E-1,-4.605804E-2,1.993521E-1,-4.9104944E-2,-7.260981E-1,5.29377E-1,-9.731582E-1,3.0015683E-2,-7.894467E-1,-8.741979E-2,-6.456431E-1,2.000827E-1,-1.0784096E0,-6.4584637E-1,1.3606338E-1,-6.864021E-2,-8.133073E-1,-1.0648103E0,-1.0794747E0,2.2986703E-1,-1.0349498E0,-1.087052E0,-1.0895326E0,2.3506111E-1,1.1771963E0,-4.766516E-1,-1.0489446E0,5.1635665E-1,-8.570778E-2,1.2286549E0,2.602009E0,1.0404103E-1,-8.073817E-1,-2.6070127E-2,2.6400194E0,-8.1995524E-2,-1.0269042E0,-8.717694E-2,-4.9500012E-1,-1.0279361E0,2.020471E0,2.4509765E-1,-8.731672E-2,-1.0374238E0,-8.5070305E-2,2.1533318E-2,1.0109101E-1,2.7519694E-1,-7.69154E-2,-3.333886E-2,1.1240816E-1,-5.672273E-2,8.5323095E-2,-7.760087E-2,-7.455397E-2,-2.6206309E-2,9.2322506E-2,-7.020313E-2,-5.240323E-2,5.2216794E-2,-8.701644E-2,-6.8346545E-2,-2.4701735E-2,-7.792808E-2,-7.483549E-2,3.3305574E-2,-7.364766E-2,6.6209264E-2,-7.807706E-2,8.7716445E-2,-4.5790434E-2,8.216126E-2,-7.4089065E-2,1.2704757E-1,2.2477336E-1,-6.857443E-2,-8.2580164E-2,-8.700569E-2,-8.305626E-2,6.329926E-2,-4.682553E-2,-7.4536614E-2,-8.737727E-2,2.102542E-1,-8.651452E-2,-7.205701E-2,-7.501108E-2,-8.526029E-2,-8.7603435E-2,-7.3095664E-2,-8.722108E-2,-5.610825E-2,-2.5812935E-2,1.8442984E-1,-5.2120436E-2,6.524135E-2,-6.84298E-2,-8.579561E-2,-5.6192778E-2,1.519855E-1,4.89996E-3,2.645795E-1,2.3994167E-1,1.5409438E-1,-7.1992045E-3,1.6299908E-1,-7.247459E-2,-4.6630673E-2,-4.1087292E-2,1.842689E-1,2.89866E-1,1.8104604E-1,-8.520991E-2,-7.746098E-2,2.1168143E-1,-4.307505E-2,-2.5915649E-2,-8.442943E-2,1.8512699E-1,3.4192465E-2,-7.6663904E-2,-8.5391045E-2],"categories":[],"categories_nodes":[],"categories_segments":[],"categories_sizes":[],"default_left":[0,0,0,0,0,0,0,0,0,0,0,0,0,0,0,0,0,0,0,0,0,0,0,0,0,0,0,0,0,0,0,0,0,0,0,0,0,0,0,0,0,0,0,0,0,0,0,0,0,0,0,0,0,0,0,0,0,0,0,0,0,0,0,0,0,0,0,0,0,0,0,0,0,0,0,0,0,0,0,0,0,0,0,0,0,0,0,0,0,0,0,0,0,0,0,0,0,0,0,0,0,0,0,0,0,0,0,0,0,0,0,0,0,0,0,0,0,0,0,0,0,0,0,0,0,0,0,0,0,0,0,0,0,0,0,0,0,0,0,0,0,0,0,0,0,0,0,0,0,0,0,0,0,0,0,0,0,0,0,0,0,0,0,0,0,0,0,0,0,0,0,0,0,0,0,0,0,0,0,0,0,0,0,0,0,0,0,0,0,0,0,0,0,0,0,0,0,0,0,0,0,0,0,0,0,0,0,0,0],"id":4,"left_children":[1,3,5,7,9,11,13,15,17,-1,-1,19,21,23,-1,25,27,29,31,33,35,37,39,41,43,45,47,49,51,53,55,57,59,61,63,65,67,69,71,73,-1,75,-1,-1,-1,77,79,81,83,85,87,-1,89,91,93,95,97,99,101,-1,-1,103,105,107,109,111,113,115,117,119,121,123,125,127,-1,129,-1,131,133,135,137,139,141,143,145,147,149,-1,-1,-1,-1,151,153,155,157,159,-1,161,-1,163,165,-1,-1,167,169,171,-1,173,175,177,-1,179,181,183,185,-1,187,189,191,193,195,197,-1,199,-1,201,203,205,-1,-1,207,-1,-1,-1,-1,-1,-1,-1,-1,-1,-1,-1,-1,-1,-1,-1,-1,-1,-1,-1,-1,-1,-1,-1,-1,-1,-1,-1,-1,-1,-1,-1,-1,-1,-1,-1,-1,-1,-1,-1,-1,-1,-1,-1,-1,-1,-1,-1,-1,-1,-1,-1,-1,-1,-1,-1,-1,-1,-1,-1,-1,-1,-1,-1,-1,-1,-1,-1,-1,-1,-1,-1,-1,-1,-1,-1,-1,-1,-1],"loss_changes":[6.7075E2,2.7478145E3,5.7771875E2,5.66959E2,1.868042E0,1.7546875E2,6.872113E3,2.401123E2,1.4886523E2,0E0,0E0,1.4153125E2,9.482246E2,7.493037E2,0E0,3.4009863E2,1.5107239E1,2.8171973E2,2.7115625E2,1.0246875E2,4.8852173E2,5.563242E2,3.187262E1,1.6155957E2,8.661957E0,2.6601654E2,9.204727E1,9.3498535E0,2.4797215E1,6.653286E2,3.421167E2,1.2842773E1,1.8797577E1,6.0833984E1,6.55E1,6.1171143E1,1.1821952E2,1.0094177E3,1.832129E1,2.431903E1,0E0,7.556445E1,0E0,0E0,0E0,1.4433722E2,1.850335E2,4.7991943E1,4.822454E1,1.6607666E0,4.7914867E0,0E0,1.14116535E1,7.679243E2,1.5130566E2,1.9858398E0,3.7527597E2,3.1679688E0,1.3202154E1,0E0,0E0,1.2465039E2,1.6565332E2,1.00625E2,4.2575E2,3.6430634E1,7.958008E0,6.852325E1,1.7223454E2,1.24053314E2,6.6571106E1,7.1640625E0,3.9290833E1,5.3532715E0,0E0,4.0664062E0,0E0,5.5791264E0,1.2361496E2,1.4051254E1,1.9318814E2,1.8976105E1,5.8340958E1,3.9715927E1,4.2228436E1,1.21276855E-1,4.2822647E0,0E0,0E0,0E0,0E0,3.4532947E2,3.1896817E2,3.5128906E1,9.38257E1,1.2748882E1,0E0,9.3094315E1,0E0,2.4248047E0,1.3900435E1,0E0,0E0,1.2064502E2,3.627185E2,6.1279297E-1,0E0,2.691328E2,8.789844E1,3.121875E1,0E0,2.7356852E1,2.0363531E1,3.6948242E0,7.583431E0,0E0,4.6917587E1,1.0420532E1,1.9706558E1,1.789148E1,3.077263E2,3.3106934E1,0E0,9.8359375E0,0E0,2.8063404E1,9.476501E0,6.4993057E0,0E0,0E0,5.815918E0,0E0,0E0,0E0,0E0,0E0,0E0,0E0,0E0,0E0,0E0,0E0,0E0,0E0,0E0,0E0,0E0,0E0,0E0,0E0,0E0,0E0,0E0,0E0,0E0,0E0,0E0,0E0,0E0,0E0,0E0,0E0,0E0,0E0,0E0,0E0,0E0,0E0,0E0,0E0,0E0,0E0,0E0,0E0,0E0,0E0,0E0,0E0,0E0,0E0,0E0,0E0,0E0,0E0,0E0,0E0,0E0,0E0,0E0,0E0,0E0,0E0,0E0,0E0,0E0,0E0,0E0,0E0,0E0,0E0,0E0,0E0,0E0,0E0,0E0,0E0,0E0,0E0,0E0],"parents":[2147483647,0,0,1,1,2,2,3,3,4,4,5,5,6,6,7,7,8,8,11,11,12,12,13,13,15,15,16,16,17,17,18,18,19,19,20,20,21,21,22,22,23,23,24,24,25,25,26,26,27,27,28,28,29,29,30,30,31,31,32,32,33,33,34,34,35,35,36,36,37,37,38,38,39,39,41,41,45,45,46,46,47,47,48,48,49,49,50,50,52,52,53,53,54,54,55,55,56,56,57,57,58,58,61,61,62,62,63,63,64,64,65,65,66,66,67,67,68,68,69,69,70,70,71,71,72,72,73,73,75,75,77,77,78,78,79,79,80,80,81,81,82,82,83,83,84,84,85,85,86,86,91,91,92,92,93,93,94,94,95,95,97,97,99,99,100,100,103,103,104,104,105,105,107,107,108,108,109,109,111,111,112,112,113,113,114,114,116,116,117,117,118,118,119,119,120,120,121,121,123,123,125,125,126,126,127,127,130,130],"right_children":[2,4,6,8,10,12,14,16,18,-1,-1,20,22,24,-1,26,28,30,32,34,36,38,40,42,44,46,48,50,52,54,56,58,60,62,64,66,68,70,72,74,-1,76,-1,-1,-1,78,80,82,84,86,88,-1,90,92,94,96,98,100,102,-1,-1,104,106,108,110,112,114,116,118,120,122,124,126,128,-1,130,-1,132,134,136,138,140,142,144,146,148,150,-1,-1,-1,-1,152,154,156,158,160,-1,162,-1,164,166,-1,-1,168,170,172,-1,174,176,178,-1,180,182,184,186,-1,188,190,192,194,196,198,-1,200,-1,202,204,206,-1,-1,208,-1,-1,-1,-1,-1,-1,-1,-1,-1,-1,-1,-1,-1,-1,-1,-1,-1,-1,-1,-1,-1,-1,-1,-1,-1,-1,-1,-1,-1,-1,-1,-1,-1,-1,-1,-1,-1,-1,-1,-1,-1,-1,-1,-1,-1,-1,-1,-1,-1,-1,-1,-1,-1,-1,-1,-1,-1,-1,-1,-1,-1,-1,-1,-1,-1,-1,-1,-1,-1,-1,-1,-1,-1,-1,-1,-1,-1,-1],"split_conditions":[1E0,1E0,1E0,-3E-1,-3E-1,1E0,-5.5172414E-1,2.0689656E-1,2.7586207E-1,3.2781926E-1,2.2741246E-1,9.23362E0,9E-1,-1.2049639E-2,2.0427354E-1,5E0,1E0,1.2E0,6.5E-1,1E0,-3E-1,-4.4827586E-1,2.3E1,1.8E1,-5.862069E-1,-2.0622471E-1,1.2E1,1E0,1.4E1,-3.1034482E-1,-5.5172414E-1,5.5E-1,-6.977448E-1,2.413793E-1,1.724138E-1,-5.5172414E-1,-5.5172414E-1,1E-1,3.5E-1,4.827586E-1,-6.1490964E-2,5E0,2.2636268E-1,3.3450323E-1,2.1812694E-1,-4.827586E-1,1E1,-4.793197E-1,9E0,1.7E1,4.1379312E-1,-7.8040525E-2,3E0,1.2E1,4E-1,-2.1276478E-1,2.55E0,4.5E-1,3E0,-5.1953223E-2,2.1765865E-1,1.3E0,7.5E-1,1.1E0,2.55E0,6E0,1E0,1.1E1,0E0,-1.5E-1,2.5E1,2.413793E-1,1.724138E-1,1.2E0,-5.475702E-2,1E1,2.3169804E-1,6E0,4E0,4E0,1.623726E0,1E1,9E0,-4.718293E-1,-5.2701896E-1,1E0,2.413793E-1,1.3137858E-1,-4.605804E-2,1.993521E-1,-4.9104944E-2,-5.5172414E-1,-4.642798E-1,9.23362E0,-1.0344828E-1,1E0,-8.741979E-2,-4.4827586E-1,2.000827E-1,3.7931034E-1,4.119664E-1,1.3606338E-1,-6.864021E-2,-3.7931034E-1,-5.5172414E-1,3.1540911E0,2.2986703E-1,-3.7931034E-1,-5.5172414E-1,5.5E-1,2.3506111E-1,1E1,2.8E1,-3.7931034E-1,1.2E1,-8.570778E-2,1E0,-3.1034482E-1,3.5E-1,-2.5E-1,1E1,3E0,-8.1995524E-2,-1E-1,-8.717694E-2,-3.1034482E-1,2E0,1.0344828E-1,2.4509765E-1,-8.731672E-2,1.1E1,-8.5070305E-2,2.1533318E-2,1.0109101E-1,2.7519694E-1,-7.69154E-2,-3.333886E-2,1.1240816E-1,-5.672273E-2,8.5323095E-2,-7.760087E-2,-7.455397E-2,-2.6206309E-2,9.2322506E-2,-7.020313E-2,-5.240323E-2,5.2216794E-2,-8.701644E-2,-6.8346545E-2,-2.4701735E-2,-7.792808E-2,-7.483549E-2,3.3305574E-2,-7.364766E-2,6.6209264E-2,-7.807706E-2,8.7716445E-2,-4.5790434E-2,8.216126E-2,-7.4089065E-2,1.2704757E-1,2.2477336E-1,-6.857443E-2,-8.2580164E-2,-8.700569E-2,-8.305626E-2,6.329926E-2,-4.682553E-2,-7.4536614E-2,-8.737727E-2,2.102542E-1,-8.651452E-2,-7.205701E-2,-7.501108E-2,-8.526029E-2,-8.7603435E-2,-7.3095664E-2,-8.722108E-2,-5.610825E-2,-2.5812935E-2,1.8442984E-1,-5.2120436E-2,6.524135E-2,-6.84298E-2,-8.579561E-2,-5.6192778E-2,1.519855E-1,4.89996E-3,2.645795E-1,2.3994167E-1,1.5409438E-1,-7.1992045E-3,1.6299908E-1,-7.247459E-2,-4.6630673E-2,-4.1087292E-2,1.842689E-1,2.89866E-1,1.8104604E-1,-8.520991E-2,-7.746098E-2,2.1168143E-1,-4.307505E-2,-2.5915649E-2,-8.442943E-2,1.8512699E-1,3.4192465E-2,-7.6663904E-2,-8.5391045E-2],"split_indices":[32,70,69,8,8,70,9,9,9,0,0,0,8,0,0,4,12,8,8,20,8,9,3,1,9,0,4,38,1,9,9,8,0,9,9,9,9,8,8,9,0,2,0,0,0,9,1,0,1,1,9,0,2,1,8,0,8,8,4,0,0,8,8,8,8,3,42,4,9,8,3,9,9,8,0,4,0,2,4,1,0,4,1,0,0,58,9,0,0,0,0,9,0,0,9,12,0,9,0,9,0,0,0,9,9,0,0,9,9,8,0,4,3,9,4,0,74,9,8,8,4,4,0,8,0,9,4,9,0,0,4,0,0,0,0,0,0,0,0,0,0,0,0,0,0,0,0,0,0,0,0,0,0,0,0,0,0,0,0,0,0,0,0,0,0,0,0,0,0,0,0,0,0,0,0,0,0,0,0,0,0,0,0,0,0,0,0,0,0,0,0,0,0,0,0,0,0,0,0,0,0,0,0,0,0,0,0,0,0],"split_type":[0,0,0,0,0,0,0,0,0,0,0,0,0,0,0,0,0,0,0,0,0,0,0,0,0,0,0,0,0,0,0,0,0,0,0,0,0,0,0,0,0,0,0,0,0,0,0,0,0,0,0,0,0,0,0,0,0,0,0,0,0,0,0,0,0,0,0,0,0,0,0,0,0,0,0,0,0,0,0,0,0,0,0,0,0,0,0,0,0,0,0,0,0,0,0,0,0,0,0,0,0,0,0,0,0,0,0,0,0,0,0,0,0,0,0,0,0,0,0,0,0,0,0,0,0,0,0,0,0,0,0,0,0,0,0,0,0,0,0,0,0,0,0,0,0,0,0,0,0,0,0,0,0,0,0,0,0,0,0,0,0,0,0,0,0,0,0,0,0,0,0,0,0,0,0,0,0,0,0,0,0,0,0,0,0,0,0,0,0,0,0,0,0,0,0,0,0,0,0,0,0,0,0,0,0,0,0,0,0],"sum_hessian":[3.25624E5,2.5936445E4,2.9968753E5,2.5747154E4,1.8929103E2,2.9149756E5,8.189993E3,2.479439E3,2.3267715E4,5.741923E0,1.835491E2,2.809643E5,1.053324E4,7.619107E3,5.708867E2,1.8940144E3,5.854247E2,1.4830484E4,8.43723E3,2.7968038E5,1.2839521E3,1.0461093E4,7.2147514E1,7.5814634E3,3.7643192E1,5.279419E2,1.3660725E3,5.7310974E2,1.2314984E1,8.195822E3,6.6346616E3,8.416514E3,2.0716648E1,1.258964E4,2.6709072E5,1.1170911E3,1.668611E2,1.215602E3,9.245491E3,6.991515E1,2.2323568E0,7.5717417E3,9.7216215E0,1.3808807E1,2.3834385E1,1.4373776E2,3.8420413E2,1.1428716E3,2.2320093E2,5.708606E2,2.2491403E0,7.7895117E0,4.525473E0,2.1761401E3,6.0196826E3,6.458E3,1.766616E2,8.41029E3,6.223518E0,1.4276606E0,1.9288988E1,8.043057E3,4.546582E3,1.5429198E5,1.12798734E5,1.0150399E2,1.01558704E3,5.6489243E1,1.1037185E2,1.1004703E3,1.1513165E2,8.543835E3,7.0165625E2,6.8288574E1,1.6265783E0,7.567865E3,3.8768153E0,2.0869825E1,1.22867935E2,1.9590047E2,1.8830367E2,3.901411E2,7.5273047E2,7.725625E1,1.4594467E2,4.7683044E2,9.403012E1,1.1987894E0,1.0503509E0,3.364541E0,1.160932E0,1.4412981E3,7.348421E2,5.8654385E3,1.5424403E2,3.370936E1,6.4242905E3,1.2306975E2,5.359185E1,8.388095E3,2.2195776E1,2.6481295E0,3.5753882E0,4.488547E3,3.5545103E3,4.536882E3,9.700494E0,9.011795E4,6.417403E4,1.12773414E5,2.5321314E1,1.4727746E1,8.6776245E1,1.01288086E3,2.7061355E0,3.8070717E1,1.8418528E1,5.933064E1,5.104121E1,8.3154205E2,2.689283E2,1.1044413E2,4.68752E0,4.8477227E3,3.6961118E3,1.9424161E2,5.0741464E2,1.5009329E1,5.327925E1,4.6844614E3,2.8834036E3,1.7511404E1,3.3584216E0,8.4634865E1,3.8233074E1,1.0677612E2,8.912434E1,1.2260364E2,6.570003E1,3.8510654E0,3.8629007E2,2.3041112E2,5.2231934E2,1.0325903E1,6.693034E1,3.046767E1,1.15477005E2,4.5303214E2,2.379833E1,1.2288785E1,8.174133E1,1.2182396E3,2.2305853E2,1.25005516E2,6.0983655E2,5.858027E3,7.4116282E0,9.641509E1,5.782894E1,3.2454285E1,1.255073E0,6.391242E0,1.16678505E2,1.4080055E3,6.980089E3,1.765353E1,4.542246E0,1.5362783E3,2.9522686E3,3.5290256E3,2.54846E1,4.482762E3,5.411947E1,2.1675404E4,6.844255E4,6.134115E4,2.8328801E3,1.1255971E5,2.1370563E2,6.6289144E0,8.098832E0,7.687013E1,9.906118E0,1.13704895E2,8.9917596E2,1.7004226E0,1.0057129E0,1.2453623E1,5.9649053E0,3.5201054E1,2.4129583E1,4.7252632E1,3.788581E0,5.75759E2,2.5578305E2,2.2303036E2,4.589796E1,2.8218971E1,8.222516E1,2.9245188E3,1.9232037E3,1.8323033E0,1.924093E2,1.9510815E1,4.8790384E2,1.22913265E1,2.7180023E0,8.010614E2,2.082342E3],"tree_param":{"num_deleted":"0","num_feature":"75","num_nodes":"209","size_leaf_vector":"1"}},{"base_weights":[-1.0282329E0,-6.743959E-1,-1.0748107E0,-9.6838033E-1,1.8417157E-1,-1.0828325E0,-8.4436166E-1,-3.7263167E-1,-1.0197496E0,-9.368826E-1,3.3025267E0,-8.710381E-2,-8.4793556E-1,-9.1105175E-1,1.987005E-1,-1.5934187E-1,-9.311579E-1,-9.311227E-1,-1.0435991E0,-9.85351E-1,9.988837E-1,3.3986917E0,1.8800637E-1,-1.0667448E0,1.7922227E-1,-9.5026404E-1,2.1813447E0,-5.7399607E-1,2.7922043E-1,-1.078948E0,-5.963997E-1,-1.0668895E0,-8.0638474E-1,-1.0471208E0,1.8484485E-1,-1.0433446E0,-5.2230537E-1,4.3867326E0,6.4635897E-1,3.506779E0,2.6953955E0,-8.6975306E-2,-1.0165612E0,-1.6465859E-1,-1.0302347E0,2.2196628E-1,-1.21538945E-1,-6.063245E-1,2.4452782E-1,-6.10392E-1,5.4773915E-1,-5.497925E-1,-8.72836E-2,-1.8240465E-1,-9.3431264E-1,-1.0855672E0,-9.3433565E-1,-2.6683554E-1,-8.391676E-1,-1.033317E0,-1.0771848E0,-1.0457934E0,2.3651628E-1,1.1657599E-2,-1.0022205E0,3.7688583E-1,1.4707544E-1,3.771847E-1,3.437007E-1,3.234758E0,3.8239663E0,1.928325E-1,2.2371942E-1,-1.0357333E0,3.085647E-1,-5.390162E-1,2.0398216E0,-9.824481E-1,-1.0772837E0,1.1541985E0,-8.2099386E-2,-1.0157803E0,-4.2613184E-1,6.774251E-1,-8.2656217E-1,1.262538E0,3.3180792E-2,-7.918319E-2,1.5196446E-1,3.8715684E-1,-7.3819363E-1,-9.825211E-1,1.3100168E-1,-7.621699E-1,-8.702433E-2,-9.927033E-1,-6.7878073E-1,6.5317935E-1,-5.2498394E-1,-8.721837E-1,-3.1514198E-1,-9.5159227E-1,-1.0501467E0,-1.0779811E0,-7.680601E-1,-7.1179914E-1,-1.0599301E0,7.870473E-1,-8.982335E-1,-1.0503114E0,2.1631691E-1,2.639451E0,3.6396947E-2,2.2878665E-1,3.410898E0,3.4692001E0,3.1790626E-1,-7.5032634E-1,-1.0817828E0,-8.111833E-1,-1.5384538E-1,2.7448416E-1,1.4983294E0,-1.008301E0,-5.22983E-1,-1.026164E0,-8.684339E-2,-5.560916E-2,1.5899132E0,-8.2664296E-2,-5.0353292E-2,-7.892809E-2,-1.8562712E-2,9.388595E-3,2.0675918E-1,-3.446447E-2,-7.671072E-2,1.3234428E-1,-6.073461E-2,-2.0141358E-2,6.527178E-2,7.959578E-2,-8.58792E-2,1.2271623E-2,-7.553058E-2,-8.230864E-2,-2.7490525E-2,-8.225312E-2,7.502527E-2,-7.190542E-2,-8.697807E-2,-6.508866E-2,4.0499296E-2,1.18385084E-1,-5.3997282E-2,-5.2112374E-2,6.786438E-2,1.3880855E-2,-7.100413E-2,-6.391426E-2,2.4628145E-1,-8.2759865E-2,-6.5414764E-2,-8.641781E-2,-8.161659E-2,-8.630206E-2,-6.252698E-2,-8.203046E-2,6.70744E-2,7.375795E-2,-8.5281506E-2,-8.512848E-2,-2.5806112E-2,5.673168E-1,3.8152274E-2,-8.158585E-2,8.7868005E-2,-8.598832E-2,-5.9470475E-2,2.8304446E-1,-7.844665E-3,-5.3475678E-2,3.8235724E-2,2.5737882E-1,3.0740342E-1,2.885085E-1,2.3541188E-1,-7.851957E-2,3.3105108E-1,-8.6803146E-2,2.7664842E-2,-7.7647544E-2,-2.9270986E-2,-4.19882E-2,7.623388E-2,-6.513039E-2,1.6884506E-1,-8.430816E-2,-7.3881075E-2,3.2070494E-1,-7.30921E-2,-8.341562E-2,2.4838557E-2,1.6772985E-1,-5.0819933E-2],"categories":[],"categories_nodes":[],"categories_segments":[],"categories_sizes":[],"default_left":[0,0,0,0,0,0,0,0,0,0,0,0,0,0,0,0,0,0,0,0,0,0,0,0,0,0,0,0,0,0,0,0,0,0,0,0,0,0,0,0,0,0,0,0,0,0,0,0,0,0,0,0,0,0,0,0,0,0,0,0,0,0,0,0,0,0,0,0,0,0,0,0,0,0,0,0,0,0,0,0,0,0,0,0,0,0,0,0,0,0,0,0,0,0,0,0,0,0,0,0,0,0,0,0,0,0,0,0,0,0,0,0,0,0,0,0,0,0,0,0,0,0,0,0,0,0,0,0,0,0,0,0,0,0,0,0,0,0,0,0,0,0,0,0,0,0,0,0,0,0,0,0,0,0,0,0,0,0,0,0,0,0,0,0,0,0,0,0,0,0,0,0,0,0,0,0,0,0,0,0,0,0,0,0,0,0,0,0,0,0,0,0,0,0,0,0,0,0,0,0,0,0,0,0,0],"id":5,"left_children":[1,3,5,7,9,11,13,15,17,19,21,-1,23,25,-1,27,29,31,33,35,37,39,-1,41,-1,43,45,47,49,51,53,55,57,59,-1,61,63,65,67,69,71,-1,73,75,77,-1,79,81,-1,83,85,87,-1,89,91,93,95,97,99,101,103,105,-1,107,109,-1,-1,111,-1,113,115,-1,-1,117,-1,119,121,123,125,127,-1,129,131,133,135,137,139,-1,-1,141,143,145,-1,147,-1,149,151,153,155,157,159,161,163,165,167,169,171,173,175,177,-1,179,181,-1,183,185,-1,187,189,191,193,-1,195,197,199,201,-1,-1,203,-1,-1,-1,-1,-1,-1,-1,-1,-1,-1,-1,-1,-1,-1,-1,-1,-1,-1,-1,-1,-1,-1,-1,-1,-1,-1,-1,-1,-1,-1,-1,-1,-1,-1,-1,-1,-1,-1,-1,-1,-1,-1,-1,-1,-1,-1,-1,-1,-1,-1,-1,-1,-1,-1,-1,-1,-1,-1,-1,-1,-1,-1,-1,-1,-1,-1,-1,-1,-1,-1,-1,-1,-1,-1,-1,-1],"loss_changes":[5.0077812E3,8.923494E3,4.9546875E2,8.055762E2,3.1530191E4,3.6265625E2,2.0082339E3,2.4908414E2,5.027539E1,6.234487E2,2.1046484E2,0E0,4.3482993E3,1.0765605E3,0E0,2.7569992E2,2.7950134E1,8.63584E1,2.2797852E2,1.732749E2,1.9130284E2,1.5505469E2,0E0,5.0585938E0,0E0,5.496011E2,1.5232996E2,9.330322E1,1.7639632E2,1.9587402E0,2.4904995E1,5.083252E0,4.732434E1,6.8027344E0,0E0,5.942627E1,1.8514607E2,3.8587341E0,1.441826E2,1.4918945E2,1.6896973E0,0E0,1.6790552E2,6.692954E2,1.6797852E1,0E0,2.8593029E1,5.6607788E1,0E0,4.826421E1,2.0838603E2,1.36802635E1,0E0,2.617907E1,1.3814987E1,7.282715E-1,3.970459E0,3.7260628E1,4.3561646E1,1.7016602E1,6.435547E-1,2.6388184E1,0E0,2.4267235E2,7.0657166E1,0E0,0E0,1.0730496E2,0E0,5.7242188E1,3.1881836E1,0E0,0E0,2.2163696E1,0E0,7.251561E1,8.35618E1,4.641089E1,5.708008E-1,9.42391E0,0E0,9.4425964E-1,5.836036E1,2.65903E1,7.294304E0,1.890975E2,7.392186E1,0E0,0E0,3.7514328E1,7.809366E0,2.5258255E0,0E0,9.161506E0,0E0,1.2529602E0,1.0166615E1,3.8881313E1,2.1722507E1,3.8448853E1,2.5158748E2,2.4103882E1,8.669922E0,5.6103516E-1,8.6486435E0,1.3783813E2,1.6632324E1,3.597104E2,3.9540268E1,2.0358887E0,0E0,4.5177345E1,3.8315258E1,0E0,4.4901855E1,8.37915E0,0E0,2.8220496E2,7.362671E0,2.8450073E1,1.18815025E2,0E0,1.2422742E2,1.3471436E1,3.800123E2,1.2994873E1,0E0,0E0,1.10956135E1,0E0,0E0,0E0,0E0,0E0,0E0,0E0,0E0,0E0,0E0,0E0,0E0,0E0,0E0,0E0,0E0,0E0,0E0,0E0,0E0,0E0,0E0,0E0,0E0,0E0,0E0,0E0,0E0,0E0,0E0,0E0,0E0,0E0,0E0,0E0,0E0,0E0,0E0,0E0,0E0,0E0,0E0,0E0,0E0,0E0,0E0,0E0,0E0,0E0,0E0,0E0,0E0,0E0,0E0,0E0,0E0,0E0,0E0,0E0,0E0,0E0,0E0,0E0,0E0,0E0,0E0,0E0,0E0,0E0,0E0,0E0,0E0,0E0,0E0,0E0,0E0],"parents":[2147483647,0,0,1,1,2,2,3,3,4,4,5,5,6,6,7,7,8,8,9,9,10,10,12,12,13,13,15,15,16,16,17,17,18,18,19,19,20,20,21,21,23,23,25,25,26,26,27,27,28,28,29,29,30,30,31,31,32,32,33,33,35,35,36,36,37,37,38,38,39,39,40,40,42,42,43,43,44,44,46,46,47,47,49,49,50,50,51,51,53,53,54,54,55,55,56,56,57,57,58,58,59,59,60,60,61,61,63,63,64,64,67,67,69,69,70,70,73,73,75,75,76,76,77,77,78,78,79,79,81,81,82,82,83,83,84,84,85,85,86,86,89,89,90,90,91,91,93,93,95,95,96,96,97,97,98,98,99,99,100,100,101,101,102,102,103,103,104,104,105,105,106,106,107,107,108,108,109,109,111,111,112,112,114,114,115,115,117,117,118,118,119,119,120,120,122,122,123,123,124,124,125,125,128,128],"right_children":[2,4,6,8,10,12,14,16,18,20,22,-1,24,26,-1,28,30,32,34,36,38,40,-1,42,-1,44,46,48,50,52,54,56,58,60,-1,62,64,66,68,70,72,-1,74,76,78,-1,80,82,-1,84,86,88,-1,90,92,94,96,98,100,102,104,106,-1,108,110,-1,-1,112,-1,114,116,-1,-1,118,-1,120,122,124,126,128,-1,130,132,134,136,138,140,-1,-1,142,144,146,-1,148,-1,150,152,154,156,158,160,162,164,166,168,170,172,174,176,178,-1,180,182,-1,184,186,-1,188,190,192,194,-1,196,198,200,202,-1,-1,204,-1,-1,-1,-1,-1,-1,-1,-1,-1,-1,-1,-1,-1,-1,-1,-1,-1,-1,-1,-1,-1,-1,-1,-1,-1,-1,-1,-1,-1,-1,-1,-1,-1,-1,-1,-1,-1,-1,-1,-1,-1,-1,-1,-1,-1,-1,-1,-1,-1,-1,-1,-1,-1,-1,-1,-1,-1,-1,-1,-1,-1,-1,-1,-1,-1,-1,-1,-1,-1,-1,-1,-1,-1,-1,-1,-1],"split_conditions":[-5.714286E-1,-3E-1,1E0,1E0,-5.862069E-1,1E0,1E0,1.3793103E-1,-4.827586E-1,1.8E1,1E0,-8.710381E-2,-5.5172414E-1,8E-1,1.987005E-1,-2.0689656E-1,1.2E1,-3.5623646E-1,1E0,1.1E1,5E0,1.4E0,1.8800637E-1,1E1,1.7922227E-1,-4.4827586E-1,2.5714285E0,1E0,7E0,-6.6390234E-1,2.7586207E-1,1E0,1E0,1.724138E-1,1.8484485E-1,1E0,1E0,1E0,1.2E1,-3.7931034E-1,1E0,-8.6975306E-2,4.2857143E-1,1E-1,2.0689656E-1,2.2196628E-1,2.0689656E-1,-4.2319056E-1,2.4452782E-1,-3.66532E-1,1E1,1E0,-8.72836E-2,1E1,1E0,2E0,1.1E1,1E0,1E0,1E1,1E0,-2.0622471E-1,2.3651628E-1,5.5E-1,-1.2049639E-2,3.7688583E-1,1.4707544E-1,1E0,3.437007E-1,1E0,1E0,1.928325E-1,2.2371942E-1,1.1E1,3.085647E-1,1E0,5.714286E-1,3.5E-1,2E0,-7.235843E-1,-8.2099386E-2,1E0,8E0,-4.4840539E-1,9E0,1.623726E0,1.2E1,-7.918319E-2,1.5196446E-1,9.0401113E-1,7E0,1E0,1.3100168E-1,-4.054975E-1,-8.702433E-2,-7.2023046E-1,2.2E1,4.6436062E-1,1E0,1E0,-1.7983103E-2,1E1,-3.66532E-1,1E0,1.2E1,1E0,1E0,4E0,5.3E0,-1.6326618E-1,2.1631691E-1,3.824824E-1,1.1E1,2.2878665E-1,1E1,4E-1,3.1790626E-1,-2.857143E-1,2.857143E-1,1.1E1,-1E-1,2.7448416E-1,2E-1,-5E-2,1.2857143E0,4.5E-1,-8.684339E-2,-5.560916E-2,-7.14865E-1,-8.2664296E-2,-5.0353292E-2,-7.892809E-2,-1.8562712E-2,9.388595E-3,2.0675918E-1,-3.446447E-2,-7.671072E-2,1.3234428E-1,-6.073461E-2,-2.0141358E-2,6.527178E-2,7.959578E-2,-8.58792E-2,1.2271623E-2,-7.553058E-2,-8.230864E-2,-2.7490525E-2,-8.225312E-2,7.502527E-2,-7.190542E-2,-8.697807E-2,-6.508866E-2,4.0499296E-2,1.18385084E-1,-5.3997282E-2,-5.2112374E-2,6.786438E-2,1.3880855E-2,-7.100413E-2,-6.391426E-2,2.4628145E-1,-8.2759865E-2,-6.5414764E-2,-8.641781E-2,-8.161659E-2,-8.630206E-2,-6.252698E-2,-8.203046E-2,6.70744E-2,7.375795E-2,-8.5281506E-2,-8.512848E-2,-2.5806112E-2,5.673168E-1,3.8152274E-2,-8.158585E-2,8.7868005E-2,-8.598832E-2,-5.9470475E-2,2.8304446E-1,-7.844665E-3,-5.3475678E-2,3.8235724E-2,2.5737882E-1,3.0740342E-1,2.885085E-1,2.3541188E-1,-7.851957E-2,3.3105108E-1,-8.6803146E-2,2.7664842E-2,-7.7647544E-2,-2.9270986E-2,-4.19882E-2,7.623388E-2,-6.513039E-2,1.6884506E-1,-8.430816E-2,-7.3881075E-2,3.2070494E-1,-7.30921E-2,-8.341562E-2,2.4838557E-2,1.6772985E-1,-5.0819933E-2],"split_indices":[10,8,70,67,9,69,5,9,9,1,69,0,9,8,0,9,1,0,69,1,4,8,0,4,0,9,10,70,1,0,9,70,20,9,0,70,69,69,4,9,32,0,10,8,9,0,9,0,0,0,4,54,0,4,13,3,4,5,69,4,37,0,0,8,0,0,0,32,0,32,32,0,0,4,0,7,10,8,4,0,0,58,1,0,3,0,4,0,0,0,3,65,0,0,0,0,1,0,42,32,0,1,0,16,4,69,69,4,8,0,0,0,3,0,4,8,0,10,10,4,8,0,8,8,10,8,0,0,0,0,0,0,0,0,0,0,0,0,0,0,0,0,0,0,0,0,0,0,0,0,0,0,0,0,0,0,0,0,0,0,0,0,0,0,0,0,0,0,0,0,0,0,0,0,0,0,0,0,0,0,0,0,0,0,0,0,0,0,0,0,0,0,0,0,0,0,0,0,0,0,0,0,0,0,0],"split_type":[0,0,0,0,0,0,0,0,0,0,0,0,0,0,0,0,0,0,0,0,0,0,0,0,0,0,0,0,0,0,0,0,0,0,0,0,0,0,0,0,0,0,0,0,0,0,0,0,0,0,0,0,0,0,0,0,0,0,0,0,0,0,0,0,0,0,0,0,0,0,0,0,0,0,0,0,0,0,0,0,0,0,0,0,0,0,0,0,0,0,0,0,0,0,0,0,0,0,0,0,0,0,0,0,0,0,0,0,0,0,0,0,0,0,0,0,0,0,0,0,0,0,0,0,0,0,0,0,0,0,0,0,0,0,0,0,0,0,0,0,0,0,0,0,0,0,0,0,0,0,0,0,0,0,0,0,0,0,0,0,0,0,0,0,0,0,0,0,0,0,0,0,0,0,0,0,0,0,0,0,0,0,0,0,0,0,0,0,0,0,0,0,0,0,0,0,0,0,0,0,0,0,0,0,0],"sum_hessian":[3.0389506E5,3.5352098E4,2.6854297E5,2.633465E4,9.017447E3,2.5950612E5,9.036848E3,2.0911414E3,2.424351E4,6.6334204E3,2.3840269E3,2.5307569E5,6.4304307E3,8.860033E3,1.7681436E2,1.5141887E3,5.769526E2,5.1490967E3,1.9094412E4,6.4718667E3,1.6155394E2,2.163062E3,2.2096483E2,6.0055723E3,4.248583E2,8.749776E3,1.1025637E2,7.7815027E2,7.360385E2,3.9870706E2,1.7824551E2,2.4619343E3,2.687162E3,1.9075072E4,1.9339794E1,5.7504106E3,7.214562E2,1.4147668E1,1.4740627E2,1.8714579E3,2.916042E2,4.2523604E3,1.7532117E3,8.086755E2,7.941101E3,8.750884E1,2.2747526E1,7.721081E2,6.0421996E0,1.7035916E2,5.656793E2,9.94927E0,3.887578E2,8.079682E1,9.7448685E1,2.1515742E3,3.1036014E2,1.5444276E2,2.5327192E3,1.3096993E4,5.9780806E3,5.74763E3,2.780376E0,3.4196024E2,3.794959E2,1.17973995E1,2.350268E0,1.3830951E2,9.096764E0,1.0134862E3,8.579716E2,8.286192E1,2.0874228E2,1.7471261E3,6.0855064E0,6.9192975E2,1.1674574E2,3.9505256E3,3.9905754E3,9.323927E0,1.34236E1,2.3453401E2,5.375741E2,2.4179274E1,1.4617989E2,2.3616167E2,3.2951764E2,8.93932E0,1.00995E0,4.005385E1,4.0742977E1,9.626224E1,1.1864481E0,1.7128103E1,2.1344463E3,2.5030661E2,6.005353E1,3.35048E1,1.2093797E2,2.3819792E3,1.5074019E2,2.2463413E3,1.0850651E4,5.960239E3,1.7841925E1,2.3548141E2,5.512149E3,1.8469884E2,1.572614E2,3.7534213E2,4.1537824E0,1.72242E1,1.2108531E2,3.294561E2,6.840301E2,2.6196793E2,5.960037E2,2.4513188E2,1.5019943E3,4.0479196E2,2.871378E2,3.1213667E1,8.5532074E1,3.7389502E3,2.1157544E2,5.7244885E2,3.4181267E3,1.6643878E0,7.659539E0,2.2275658E2,1.1777441E1,1.3723033E2,4.0034372E2,1.9510855E1,4.668419E0,3.7695045E1,1.0848485E2,1.9797932E2,3.8182346E1,2.4207034E2,8.744731E1,2.8509554E1,1.1544293E1,7.692836E0,3.305014E1,8.918361E1,7.07863E0,1.515242E1,1.9756827E0,1.3084875E2,1.1945786E2,5.420025E1,5.8532834E0,2.0581026E1,1.2923773E1,1.1122463E2,9.713338E0,3.435052E1,2.3476287E3,1.3260162E2,1.8138561E1,1.3832227E3,8.6311847E2,5.395484E3,5.4551675E3,5.9416704E3,1.8567913E1,1.5690426E1,2.151499E0,4.167238E1,1.9380904E2,5.4806665E3,3.1482088E1,7.6349645E0,1.7706387E2,1.4869525E2,8.5661545E0,3.452347E2,3.0107431E1,1.2747361E1,4.476838E0,4.643983E1,7.464548E1,4.78016E2,2.0601413E2,2.0319156E2,5.8776363E1,2.3482649E2,1.030538E1,1.4988151E3,3.1791115E0,2.9721326E2,1.0757871E2,2.1544339E2,7.169439E1,1.7835627E1,6.769645E1,2.4248184E3,1.3141318E3,1.6056528E1,1.955189E2,5.656727E2,6.7761216E0,6.285893E0,1.3736463E0],"tree_param":{"num_deleted":"0","num_feature":"75","num_nodes":"205","size_leaf_vector":"1"}},{"base_weights":[-1.0185004E0,-6.5754014E-1,-1.0669351E0,1.2124003E-1,-7.5150615E-1,-1.0754384E0,-8.255965E-1,-6.07741E-1,5.81561E-1,-5.114476E-1,-8.8827187E-1,-1.0654746E0,-8.643112E-2,1.7727432E-1,-8.975224E-1,2.6539272E-1,-7.3467755E-1,1.247542E0,3.4853376E-2,-8.8158315E-1,1.3207182E-1,-1.0483271E0,-7.8808546E-1,-1.0128224E0,-1.0741459E0,-2.886647E-2,-9.9545157E-1,-2.0575093E-1,1.0886195E0,-1.0328904E0,-5.296239E-1,1.5058904E0,-1.9596583E-1,-7.6235604E-1,3.625086E-1,-1.0702469E0,-7.4581707E-1,5.164627E-1,-5.9162366E-1,-1.060206E0,-9.456641E-1,-1.208376E-1,-8.249699E-1,-1.0699503E0,-3.1545985E-1,-8.645239E-2,-1.0669507E0,-3.2748237E-1,1.3541236E0,-9.610255E-1,-8.566738E-2,-3.184306E-1,1.5544653E-1,3.9748457E-1,1.7598487E0,-1.0427755E0,7.771214E-1,7.0500445E-1,-6.8910664E-1,-5.4756373E-1,1.7681128E0,3.149221E-1,-8.7527895E-1,-8.206172E-1,1.8965626E-1,5.3705823E-2,1.1257839E0,-1.0719657E0,3.893557E-1,7.0961267E-1,-8.7708074E-1,-7.82838E-1,9.015416E-1,-3.5555816E-1,-8.481568E-2,-1.0677558E0,-1.0069538E0,-6.549853E-1,-1.0406803E0,-7.3470074E-1,3.7504113E-1,-1.014218E0,-7.454099E-1,-8.6431056E-2,-1.0482345E0,-4.841938E-1,1.6050205E-1,-1.059589E0,-8.6504444E-2,3.7240606E-2,-7.51886E-1,1.4940022E0,-8.249381E-2,-9.1484743E-1,-8.605133E-2,4.3397832E-1,-6.0239726E-1,9.573573E-1,-3.9961222E-1,2.1640055E0,-2.6894388E-1,-1.0701632E0,-9.163934E-1,-4.8349984E-2,1.5480849E-1,5.423404E-1,2.4795842E0,-4.0986523E-1,-9.046699E-1,-3.2783203E-2,-9.8542225E-1,1.9532638E0,6.2119504E-3,-8.264844E-2,6.8439364E-1,-9.993795E-1,1.1345039E-1,-1.0658399E0,-6.3215184E-1,3.3350044E-1,-5.2630764E-1,-3.8978148E-1,1.3123052E0,-1.0736618E0,-5.778313E-1,1.4632598E-1,-5.8417797E-2,-3.452316E-1,1.6429212E0,-6.4700073E-1,-9.933412E-1,-5.86847E-1,-9.848448E-1,1.9529437E0,2.5000814E-1,-9.1741705E-1,-9.7045325E-2,-8.5800834E-2,-1.0255744E0,-1.0118685E0,-4.2148447E-1,-8.935575E-1,-7.684461E-2,-8.4315196E-2,-8.9625055E-1,2.6941305E-1,-8.041644E-1,-3.595235E-2,1.4784774E0,-1.0203491E0,-5.088113E-1,-5.3190255E-1,-8.6464196E-1,-8.537355E-2,-1.0087218E0,4.6612585E-1,-7.3155165E-1,-1.0511385E0,-8.649846E-2,-2.3593597E-1,8.360176E-1,-5.22066E-1,-1.057904E0,2.218793E0,1.1702137E0,-9.301331E-1,-3.361804E-1,8.4258564E-2,-7.795702E-2,-6.1046846E-2,1.1334911E-1,9.25817E-2,-5.538015E-2,-8.154044E-2,5.133466E-2,1.4336774E-1,3.9651933E-1,-7.136273E-2,7.698718E-2,-8.660112E-2,-6.575204E-2,-5.1593512E-2,-8.538328E-2,9.101403E-2,-4.3348446E-3,2.699086E-1,9.45954E-2,-4.967826E-2,2.7693518E-2,-4.5742586E-2,-7.785146E-2,-6.3829236E-2,4.818402E-2,-8.582178E-2,5.459395E-3,-1.1345069E-2,1.598831E-1,6.5964125E-2,-3.1814974E-2,9.344067E-2,-3.4740537E-2,-8.525563E-2,-1.3843973E-2,-8.7858886E-2,-4.7485266E-2,-7.390338E-2,-1.6864516E-2,1.441744E-1,1.7061776E-2,-6.709728E-2,-1.124983E-2,4.683668E-2,-6.480804E-2,1.978844E-1,5.545742E-2,-6.594189E-2,-8.616172E-2,-7.869161E-2,1.2671642E-1,-7.069007E-2,6.811355E-3,1.4497541E-1,-8.187199E-2,-6.7232706E-2,-1.2570735E-2,-7.084936E-2,-8.4420234E-2,-4.9167532E-2,1.3629505E-1,-6.787186E-2,-8.639756E-2,1.7951366E-1,1.385949E-2,4.0073477E-2,-5.150778E-2,-8.0862984E-2,-3.5649076E-2,1.8522939E-2,-6.9137596E-2,-8.315215E-2,-6.379974E-2,-8.2183614E-2,-7.076001E-2,1.2103566E-1,-7.5609714E-2,-5.8433946E-2,-8.5414626E-2,1.618805E-2,-5.9785575E-2,-3.9290536E-2,-8.445297E-2,-1.1130012E-2,1.8584535E-1,-7.239708E-2,-4.880005E-2,-2.601354E-2,4.6256773E-2,1.4920337E-1,-8.346303E-3,-4.5093324E-2,-8.2163535E-2,6.554829E-2,-8.379059E-2,-6.2935024E-2,-4.5367884E-3,-7.27111E-2,-5.4446895E-2,-7.195766E-2,-8.330475E-2,6.812887E-2,-6.872502E-2,-7.405159E-2,2.9543652E-3,-8.278949E-2,-8.58209E-2,4.1919444E-2,-2.986011E-2,3.652937E-2,1.4182316E-1,-5.6943458E-2,2.0640623E-3,-8.723116E-2,-4.062314E-2,1.8123315E-1,6.62706E-2,7.507842E-2,2.0668252E-1,-8.21085E-2,-7.06805E-2,-7.677425E-2,1.5306954E-2],"categories":[],"categories_nodes":[],"categories_segments":[],"categories_sizes":[],"default_left":[0,0,0,0,0,0,0,0,0,0,0,0,0,0,0,0,0,0,0,0,0,0,0,0,0,0,0,0,0,0,0,0,0,0,0,0,0,0,0,0,0,0,0,0,0,0,0,0,0,0,0,0,0,0,0,0,0,0,0,0,0,0,0,0,0,0,0,0,0,0,0,0,0,0,0,0,0,0,0,0,0,0,0,0,0,0,0,0,0,0,0,0,0,0,0,0,0,0,0,0,0,0,0,0,0,0,0,0,0,0,0,0,0,0,0,0,0,0,0,0,0,0,0,0,0,0,0,0,0,0,0,0,0,0,0,0,0,0,0,0,0,0,0,0,0,0,0,0,0,0,0,0,0,0,0,0,0,0,0,0,0,0,0,0,0,0,0,0,0,0,0,0,0,0,0,0,0,0,0,0,0,0,0,0,0,0,0,0,0,0,0,0,0,0,0,0,0,0,0,0,0,0,0,0,0,0,0,0,0,0,0,0,0,0,0,0,0,0,0,0,0,0,0,0,0,0,0,0,0,0,0,0,0,0,0,0,0,0,0,0,0,0,0,0,0,0,0,0,0,0,0,0,0,0,0,0,0,0,0,0,0,0,0,0,0,0,0,0,0,0,0,0,0,0,0,0,0,0,0,0,0,0,0,0,0,0,0,0,0,0,0],"id":6,"left_children":[1,3,5,7,9,11,13,15,17,19,21,23,-1,-1,25,27,29,31,33,35,37,39,41,43,45,47,49,51,53,55,57,59,61,63,65,67,69,71,73,75,77,79,81,83,85,-1,87,89,91,93,-1,95,-1,97,99,101,103,105,107,109,111,113,115,117,-1,119,121,123,125,127,129,131,133,135,-1,137,139,141,143,145,147,149,151,-1,153,155,-1,157,-1,159,161,163,-1,165,-1,167,169,171,173,175,177,179,181,-1,-1,183,185,187,189,191,193,195,197,-1,199,201,-1,203,205,207,209,211,213,215,217,-1,-1,219,221,223,225,227,229,231,233,235,237,-1,239,241,243,245,247,-1,249,251,253,255,257,259,261,263,265,-1,267,269,271,273,-1,275,277,279,281,283,285,287,289,-1,-1,-1,-1,-1,-1,-1,-1,-1,-1,-1,-1,-1,-1,-1,-1,-1,-1,-1,-1,-1,-1,-1,-1,-1,-1,-1,-1,-1,-1,-1,-1,-1,-1,-1,-1,-1,-1,-1,-1,-1,-1,-1,-1,-1,-1,-1,-1,-1,-1,-1,-1,-1,-1,-1,-1,-1,-1,-1,-1,-1,-1,-1,-1,-1,-1,-1,-1,-1,-1,-1,-1,-1,-1,-1,-1,-1,-1,-1,-1,-1,-1,-1,-1,-1,-1,-1,-1,-1,-1,-1,-1,-1,-1,-1,-1,-1,-1,-1,-1,-1,-1,-1,-1,-1,-1,-1,-1,-1,-1,-1,-1,-1,-1,-1,-1,-1,-1,-1,-1,-1,-1,-1,-1],"loss_changes":[4.94775E3,2.4507617E3,5.1121875E2,1.2105692E3,9.80666E2,1.075E1,1.8610186E3,1.5496033E2,8.0501465E2,2.5840627E3,3.0442188E2,3.5484375E1,0E0,0E0,7.062178E2,6.925299E1,7.401965E1,3.7202588E2,3.1772977E2,1.7561035E2,1.1024944E3,7.930176E0,2.8813574E2,4.5152832E2,2.0703125E0,3.48245E2,1.833545E1,2.8229784E1,2.94272E1,9.681152E0,1.4316524E2,4.562848E2,5.309757E1,6.662245E1,2.0311285E2,7.6418457E0,7.663987E2,1.295672E3,1.5170688E2,1.5605469E0,2.0556274E1,1.873791E2,1.663418E2,1.2431641E0,3.3797128E2,0E0,2.3164062E0,1.0736297E2,5.1503387E1,2.6177734E1,0E0,2.3595467E1,0E0,1.5237991E1,2.7355919E1,7.2753906E-1,6.394262E0,2.2726368E1,3.8287903E1,2.1722548E1,2.446748E2,4.433945E1,2.0086823E1,1.5437088E1,0E0,9.9940704E1,7.068518E1,1.7905273E0,7.9777756E0,3.275724E2,9.771924E1,2.2869934E1,1.367478E3,1.3292819E2,0E0,4.8828125E-2,1.96698E0,2.6431526E1,1.619873E-1,1.9397308E1,1.5454712E2,9.650879E0,1.9853809E2,0E0,1.494873E0,1.8904341E2,0E0,2.8320312E0,0E0,8.178191E1,2.199083E1,3.0694794E1,0E0,3.210327E1,0E0,2.7632431E1,2.6943655E1,7.3466053E0,9.971008E0,1.9510788E1,5.702335E0,3.357544E-1,3.1976395E0,0E0,0E0,2.7643814E1,3.8080826E0,4.5163815E1,7.686157E0,2.2537996E1,4.8702354E0,6.466528E1,2.423485E1,0E0,3.803113E1,3.2578049E0,0E0,1.6435852E0,2.4328499E1,7.295081E1,2.4033092E1,1.1941184E1,1.573566E2,1.5134277E0,1.2090374E1,0E0,0E0,3.639625E1,8.147113E1,1.1708923E2,1.5345215E1,2.0309128E1,2.850006E0,3.95188E2,2.7709943E2,1.2257126E1,1.585898E2,0E0,1.0726318E0,7.107544E-1,1.017971E1,3.0808182E0,1.0862011E1,0E0,3.0509682E0,1.5879839E1,4.4867096E0,4.445083E1,5.6776382E1,9.332764E0,3.0422672E1,3.3940765E2,4.0217285E1,0E0,3.092163E0,8.57377E1,9.509918E1,4.390625E0,0E0,2.9349403E1,3.3132782E1,1.9251781E1,1.8857269E0,8.9056396E-1,3.0382553E1,1.5109863E1,3.17193E1,0E0,0E0,0E0,0E0,0E0,0E0,0E0,0E0,0E0,0E0,0E0,0E0,0E0,0E0,0E0,0E0,0E0,0E0,0E0,0E0,0E0,0E0,0E0,0E0,0E0,0E0,0E0,0E0,0E0,0E0,0E0,0E0,0E0,0E0,0E0,0E0,0E0,0E0,0E0,0E0,0E0,0E0,0E0,0E0,0E0,0E0,0E0,0E0,0E0,0E0,0E0,0E0,0E0,0E0,0E0,0E0,0E0,0E0,0E0,0E0,0E0,0E0,0E0,0E0,0E0,0E0,0E0,0E0,0E0,0E0,0E0,0E0,0E0,0E0,0E0,0E0,0E0,0E0,0E0,0E0,0E0,0E0,0E0,0E0,0E0,0E0,0E0,0E0,0E0,0E0,0E0,0E0,0E0,0E0,0E0,0E0,0E0,0E0,0E0,0E0,0E0,0E0,0E0,0E0,0E0,0E0,0E0,0E0,0E0,0E0,0E0,0E0,0E0,0E0,0E0,0E0,0E0,0E0,0E0,0E0,0E0,0E0,0E0,0E0],"parents":[2147483647,0,0,1,1,2,2,3,3,4,4,5,5,6,6,7,7,8,8,9,9,10,10,11,11,14,14,15,15,16,16,17,17,18,18,19,19,20,20,21,21,22,22,23,23,24,24,25,25,26,26,27,27,28,28,29,29,30,30,31,31,32,32,33,33,34,34,35,35,36,36,37,37,38,38,39,39,40,40,41,41,42,42,43,43,44,44,46,46,47,47,48,48,49,49,51,51,53,53,54,54,55,55,56,56,57,57,58,58,59,59,60,60,61,61,62,62,63,63,65,65,66,66,67,67,68,68,69,69,70,70,71,71,72,72,73,73,75,75,76,76,77,77,78,78,79,79,80,80,81,81,82,82,84,84,85,85,87,87,89,89,90,90,91,91,93,93,95,95,96,96,97,97,98,98,99,99,100,100,101,101,102,102,105,105,106,106,107,107,108,108,109,109,110,110,111,111,112,112,114,114,115,115,117,117,118,118,119,119,120,120,121,121,122,122,123,123,124,124,127,127,128,128,129,129,130,130,131,131,132,132,133,133,134,134,135,135,136,136,138,138,139,139,140,140,141,141,142,142,144,144,145,145,146,146,147,147,148,148,149,149,150,150,151,151,152,152,154,154,155,155,156,156,157,157,159,159,160,160,161,161,162,162,163,163,164,164,165,165,166,166],"right_children":[2,4,6,8,10,12,14,16,18,20,22,24,-1,-1,26,28,30,32,34,36,38,40,42,44,46,48,50,52,54,56,58,60,62,64,66,68,70,72,74,76,78,80,82,84,86,-1,88,90,92,94,-1,96,-1,98,100,102,104,106,108,110,112,114,116,118,-1,120,122,124,126,128,130,132,134,136,-1,138,140,142,144,146,148,150,152,-1,154,156,-1,158,-1,160,162,164,-1,166,-1,168,170,172,174,176,178,180,182,-1,-1,184,186,188,190,192,194,196,198,-1,200,202,-1,204,206,208,210,212,214,216,218,-1,-1,220,222,224,226,228,230,232,234,236,238,-1,240,242,244,246,248,-1,250,252,254,256,258,260,262,264,266,-1,268,270,272,274,-1,276,278,280,282,284,286,288,290,-1,-1,-1,-1,-1,-1,-1,-1,-1,-1,-1,-1,-1,-1,-1,-1,-1,-1,-1,-1,-1,-1,-1,-1,-1,-1,-1,-1,-1,-1,-1,-1,-1,-1,-1,-1,-1,-1,-1,-1,-1,-1,-1,-1,-1,-1,-1,-1,-1,-1,-1,-1,-1,-1,-1,-1,-1,-1,-1,-1,-1,-1,-1,-1,-1,-1,-1,-1,-1,-1,-1,-1,-1,-1,-1,-1,-1,-1,-1,-1,-1,-1,-1,-1,-1,-1,-1,-1,-1,-1,-1,-1,-1,-1,-1,-1,-1,-1,-1,-1,-1,-1,-1,-1,-1,-1,-1,-1,-1,-1,-1,-1,-1,-1,-1,-1,-1,-1,-1,-1,-1,-1,-1,-1],"split_conditions":[-5.714286E-1,1E0,1E0,9E0,1E1,-2.0622471E-1,1E0,-2.4783495E-1,1E1,1E1,-4.4016364E-1,-4.4827586E-1,-8.643112E-2,1.7727432E-1,-4.4827586E-1,-4.4016364E-1,-5.862069E-1,2.7586207E-1,-4.865472E-1,-5.862069E-1,2.0689656E-1,1E0,1E0,-5.5172414E-1,-5.68265E-1,4.2857143E-1,4.1379312E-1,1E0,7E0,1E0,-4.4827586E-1,-5.862069E-1,5.1724136E-1,1E0,1.2E1,5.5595684E0,-4.4827586E-1,-5.862069E-1,5.5172414E-1,-5.0061023E-1,-5.5172414E-1,1E1,8E0,1E1,1E0,-8.645239E-2,1.8E1,1.6E1,2.5E1,2.3E1,-8.566738E-2,1E1,1.5544653E-1,1.5E1,3.448276E-2,8E0,1E0,1E0,6.896552E-2,3E0,4.2501698E0,2E0,1E0,-6.6007453E-1,1.8965626E-1,5.69032E-1,-5.862069E-1,1E0,9.23362E0,4E0,1.3793103E-1,3E0,-3.448276E-1,-3.1157145E-1,-8.481568E-2,1.2E1,1E0,1.1E1,2.2E1,-2.4783495E-1,1.2E1,9.23362E0,-4.827586E-1,-8.6431056E-2,1E0,3E0,1.6050205E-1,5E0,-8.6504444E-2,1.1E1,2.4E1,3E0,-8.249381E-2,1.7142857E0,-8.605133E-2,2.0689656E-1,1E0,3.448276E-1,2.0689656E-1,1E0,1E0,1E0,1.1E1,-4.8349984E-2,1.5480849E-1,5E0,1E0,8E0,-6.99757E-2,1.2E1,1E0,-6.952158E-1,-3.1034482E-1,-8.264844E-2,7.243827E-1,1E0,1.1345039E-1,1E0,-1.724138E-1,1E0,1.7E1,9E0,-3.1034482E-1,-3.960944E-1,9E0,1.4632598E-1,-5.8417797E-2,1E0,9.23362E0,7E0,3.7931034E-1,1E0,4E0,5.5595684E0,4.2501698E0,4E0,5.5595684E0,-8.5800834E-2,2.9E1,1.2E1,3E0,-7.2023046E-1,1.7E1,-8.4315196E-2,2E0,1E0,1.2E1,1E0,1.3793103E-1,-4.054975E-1,-5.1724136E-1,1.1E1,1.2E1,-8.537355E-2,1.1E1,1.7E1,1.1E1,3.1034482E-1,-8.649846E-2,2E0,-1.4285715E-1,1.1E1,2.857143E-1,2.1E1,1E1,9E0,1.4E1,8.4258564E-2,-7.795702E-2,-6.1046846E-2,1.1334911E-1,9.25817E-2,-5.538015E-2,-8.154044E-2,5.133466E-2,1.4336774E-1,3.9651933E-1,-7.136273E-2,7.698718E-2,-8.660112E-2,-6.575204E-2,-5.1593512E-2,-8.538328E-2,9.101403E-2,-4.3348446E-3,2.699086E-1,9.45954E-2,-4.967826E-2,2.7693518E-2,-4.5742586E-2,-7.785146E-2,-6.3829236E-2,4.818402E-2,-8.582178E-2,5.459395E-3,-1.1345069E-2,1.598831E-1,6.5964125E-2,-3.1814974E-2,9.344067E-2,-3.4740537E-2,-8.525563E-2,-1.3843973E-2,-8.7858886E-2,-4.7485266E-2,-7.390338E-2,-1.6864516E-2,1.441744E-1,1.7061776E-2,-6.709728E-2,-1.124983E-2,4.683668E-2,-6.480804E-2,1.978844E-1,5.545742E-2,-6.594189E-2,-8.616172E-2,-7.869161E-2,1.2671642E-1,-7.069007E-2,6.811355E-3,1.4497541E-1,-8.187199E-2,-6.7232706E-2,-1.2570735E-2,-7.084936E-2,-8.4420234E-2,-4.9167532E-2,1.3629505E-1,-6.787186E-2,-8.639756E-2,1.7951366E-1,1.385949E-2,4.0073477E-2,-5.150778E-2,-8.0862984E-2,-3.5649076E-2,1.8522939E-2,-6.9137596E-2,-8.315215E-2,-6.379974E-2,-8.2183614E-2,-7.076001E-2,1.2103566E-1,-7.5609714E-2,-5.8433946E-2,-8.5414626E-2,1.618805E-2,-5.9785575E-2,-3.9290536E-2,-8.445297E-2,-1.1130012E-2,1.8584535E-1,-7.239708E-2,-4.880005E-2,-2.601354E-2,4.6256773E-2,1.4920337E-1,-8.346303E-3,-4.5093324E-2,-8.2163535E-2,6.554829E-2,-8.379059E-2,-6.2935024E-2,-4.5367884E-3,-7.27111E-2,-5.4446895E-2,-7.195766E-2,-8.330475E-2,6.812887E-2,-6.872502E-2,-7.405159E-2,2.9543652E-3,-8.278949E-2,-8.58209E-2,4.1919444E-2,-2.986011E-2,3.652937E-2,1.4182316E-1,-5.6943458E-2,2.0640623E-3,-8.723116E-2,-4.062314E-2,1.8123315E-1,6.62706E-2,7.507842E-2,2.0668252E-1,-8.21085E-2,-7.06805E-2,-7.677425E-2,1.5306954E-2],"split_indices":[10,32,70,1,4,0,32,0,4,1,0,9,0,0,9,0,9,9,0,9,9,70,20,9,0,10,9,70,1,22,9,9,9,70,4,0,9,9,9,0,9,1,1,4,10,0,1,3,3,3,0,4,0,3,9,1,7,71,9,4,0,4,13,0,0,0,9,18,0,1,9,4,9,0,0,4,12,4,1,0,4,0,9,0,7,4,0,2,0,4,3,4,0,10,0,9,56,9,9,54,28,60,3,0,0,4,2,1,0,1,60,0,9,0,0,63,0,28,9,20,1,3,9,0,1,0,0,1,0,1,9,11,4,0,0,4,0,0,3,4,1,0,1,0,2,72,4,50,9,0,9,4,4,0,4,1,4,9,0,4,10,4,10,1,4,3,3,0,0,0,0,0,0,0,0,0,0,0,0,0,0,0,0,0,0,0,0,0,0,0,0,0,0,0,0,0,0,0,0,0,0,0,0,0,0,0,0,0,0,0,0,0,0,0,0,0,0,0,0,0,0,0,0,0,0,0,0,0,0,0,0,0,0,0,0,0,0,0,0,0,0,0,0,0,0,0,0,0,0,0,0,0,0,0,0,0,0,0,0,0,0,0,0,0,0,0,0,0,0,0,0,0,0,0,0,0,0,0,0,0,0,0,0,0,0,0,0,0,0,0,0],"split_type":[0,0,0,0,0,0,0,0,0,0,0,0,0,0,0,0,0,0,0,0,0,0,0,0,0,0,0,0,0,0,0,0,0,0,0,0,0,0,0,0,0,0,0,0,0,0,0,0,0,0,0,0,0,0,0,0,0,0,0,0,0,0,0,0,0,0,0,0,0,0,0,0,0,0,0,0,0,0,0,0,0,0,0,0,0,0,0,0,0,0,0,0,0,0,0,0,0,0,0,0,0,0,0,0,0,0,0,0,0,0,0,0,0,0,0,0,0,0,0,0,0,0,0,0,0,0,0,0,0,0,0,0,0,0,0,0,0,0,0,0,0,0,0,0,0,0,0,0,0,0,0,0,0,0,0,0,0,0,0,0,0,0,0,0,0,0,0,0,0,0,0,0,0,0,0,0,0,0,0,0,0,0,0,0,0,0,0,0,0,0,0,0,0,0,0,0,0,0,0,0,0,0,0,0,0,0,0,0,0,0,0,0,0,0,0,0,0,0,0,0,0,0,0,0,0,0,0,0,0,0,0,0,0,0,0,0,0,0,0,0,0,0,0,0,0,0,0,0,0,0,0,0,0,0,0,0,0,0,0,0,0,0,0,0,0,0,0,0,0,0,0,0,0,0,0,0,0,0,0,0,0,0,0,0,0,0,0,0,0,0,0],"sum_hessian":[2.830422E5,3.348778E4,2.495544E5,3.6054985E3,2.9882283E4,2.4105753E5,8.496861E3,1.3953893E3,2.2101094E3,1.0847286E4,1.9034998E4,8.008765E4,1.6096989E5,1.956029E2,8.301259E3,1.7697496E2,1.2184143E3,9.957897E2,1.2143196E3,6.886171E3,3.9611155E3,7.324346E3,1.1710651E4,1.1341333E4,6.874631E4,8.411695E2,7.460089E3,1.13034096E2,6.3940853E1,4.9479227E2,7.23622E2,8.445883E2,1.5120137E2,3.533256E2,8.609941E2,2.8788157E3,4.007355E3,2.587207E3,1.3739086E3,6.556393E3,7.6795294E2,6.136601E2,1.1096991E4,1.0482104E4,8.592298E2,3.6016613E4,3.2729701E4,6.9242413E2,1.4874536E2,5.1308896E3,2.3291992E3,1.08211555E2,4.8225446E0,3.228776E1,3.1653093E1,4.925263E2,2.2659655E0,8.238917E1,6.4123285E2,9.5516205E1,7.4907214E2,8.660509E1,6.459628E1,3.4759982E2,5.7257504E0,6.137543E2,2.4723978E2,2.875695E3,3.1207485E0,3.3115518E2,3.6762E3,5.912451E2,1.9959619E3,9.147957E2,4.5911282E2,5.725598E3,8.3079535E2,1.911302E2,5.7682275E2,2.739936E2,3.396665E2,3.2809333E3,7.8160576E3,7.0464434E3,3.4356602E3,8.0175323E2,5.7476597E1,2.1684266E4,1.1045437E4,3.728863E2,3.1953787E2,1.4085878E2,7.8865776E0,3.6637664E3,1.4671235E3,2.9505194E1,7.870636E1,1.8848036E1,1.3439725E1,2.6339367E1,5.313726E0,3.9866568E2,9.3860634E1,1.2512648E0,1.0147005E0,7.6667206E1,5.721963E0,2.8061917E2,3.6061368E2,4.4395855E1,5.1120346E1,6.777423E2,7.132981E1,1.8244247E1,6.836084E1,6.1815567E1,2.7807157E0,1.4903142E2,1.985684E2,4.14316E2,1.9943828E2,2.6974064E1,2.2026572E2,2.8646895E3,1.1005618E1,1.0879648E0,2.0327837E0,1.5575162E2,1.7540355E2,1.2362401E3,2.4399597E3,3.0207303E2,2.891721E2,7.6287946E2,1.2330824E3,2.8746423E2,6.273315E2,5.1236406E3,6.019571E2,8.231573E2,7.638024E0,1.3491245E2,5.621776E1,5.225517E2,5.4271034E1,1.754197E1,2.5645163E2,2.4819098E2,9.147551E1,3.2406025E3,4.033094E1,2.8027205E3,5.0133374E3,2.3050437E3,1.1306163E3,1.6540443E2,6.3634875E2,1.5630574E4,6.0536904E3,2.7838504E2,9.450125E1,1.8403404E2,1.3550383E2,4.1688267E1,9.917051E1,3.5688857E3,9.488056E1,2.0669548E1,8.835645E0,7.3481E1,5.2253604E0,1.707696E1,1.7710763E0,8.439062E0,5.0006633E0,2.4692526E1,1.6468418E0,3.7112005E0,1.6025255E0,3.765713E2,2.2094398E1,3.5417027E1,5.844361E1,3.791787E1,3.8749332E1,2.4392824E0,3.2826807E0,2.1950409E2,6.11151E1,6.3117027E1,2.9749664E2,2.0020695E1,2.437516E1,4.71901E1,3.9302447E0,1.4291227E1,6.634511E2,2.3227375E1,4.810244E1,4.7696552E1,2.0664286E1,5.6955048E1,4.86052E0,1.3822432E2,1.08071E1,1.1664107E2,8.192733E1,3.0291586E1,3.840244E2,1.09537346E2,8.9900925E1,8.005806E0,1.896826E1,7.555268E1,1.4471303E2,4.1353825E1,2.8233354E3,9.72501E0,1.2806084E0,6.872454E1,8.7027084E1,1.6523401E2,1.0169538E1,8.857963E2,3.504438E2,8.960931E2,1.5438667E3,2.9918048E2,2.8925388E0,1.2286039E2,1.6631169E2,6.5545337E2,1.0742607E2,9.631581E2,2.6992438E2,2.3901964E2,4.8444588E1,4.3970386E2,1.8762764E2,5.6419495E2,3.7762142E1,7.2792554E2,9.523175E1,1.2246382E0,6.413386E0,7.233688E1,6.2575558E1,4.0183136E1,1.6034622E1,1.6477367E1,3.7793667E1,1.54088955E1,2.1330729E0,1.6640335E2,9.004827E1,1.690525E2,7.913848E1,7.337661E1,1.8098902E1,4.8052166E1,3.1925503E3,1.1485446E1,2.8845493E1,1.8240562E3,9.7866425E2,4.0385376E3,9.747996E2,2.6633078E2,8.642855E2,1.2840886E2,3.6995575E1,5.0787234E2,1.2847644E2,8.94715E3,6.683424E3,4.2173435E1,2.362116E2,6.831895E1,2.6182308E1,1.3647372E2,4.7560318E1,1.2702088E2,8.482952E0,3.972688E1,1.9613875E0,8.663029E1,1.2540227E1,1.1580405E3,2.4108452E3,4.310889E1,5.1771675E1],"tree_param":{"num_deleted":"0","num_feature":"75","num_nodes":"291","size_leaf_vector":"1"}},{"base_weights":[-1.0074351E0,-6.334593E-1,-1.0589453E0,1.23595625E-1,-7.289404E-1,-1.0679742E0,-8.050627E-1,4.3678582E-1,-6.37361E-1,-4.8981595E-1,-8.674759E-1,-8.597384E-2,-8.085704E-1,1.6179629E-1,-8.715124E-1,9.6907526E-1,-3.894875E-2,-9.7390956E-1,-4.3769294E-1,-1.1700226E-1,-9.3944997E-1,-2.7902648E-1,-8.9473456E-1,-1.049751E0,1.6444996E-1,3.4153044E-2,-9.798127E-1,-7.9247963E-1,1.2139083E0,-2.6235965E-1,6.369039E-1,-9.857008E-1,1.410535E-1,1.3061523E0,-6.098737E-1,-9.1032934E-1,1.00150906E-1,-9.566088E-1,1.1280291E0,-4.9649823E-1,3.2188052E-1,-7.873745E-1,-9.551054E-1,-8.593723E-2,-9.902365E-1,-2.096371E-1,1.2343726E0,-1.0235338E0,-8.9957684E-1,-9.0411866E-1,2.621572E-1,1.681871E0,1.6754104E-1,2.111369E-1,-4.7377723E-1,8.656697E-1,-6.9574755E-1,-9.98064E-1,7.0034556E-2,1.7572188E0,8.385307E-1,-3.5366789E-1,-8.7503296E-1,-9.174866E-1,5.3749686E-1,1.6005613E0,-3.2301536E-1,-8.583968E-2,-8.6943865E-1,-7.920216E-2,1.578313E-1,-6.6564006E-1,-1.2484073E-1,7.3729247E-1,-5.7915634E-1,-8.958413E-1,-5.964548E-1,-9.6468276E-1,1.6921377E-1,-1.011604E0,2.6878983E-1,-1.4576652E-2,-8.66134E-2,1.3743896E0,-8.144502E-2,-1.0279692E0,-5.526568E-1,-8.2905084E-1,-8.585339E-2,-9.36903E-1,9.486802E-2,1.0576811E0,-4.280447E-1,2.0338743E0,1.3998722E0,6.4258415E-1,-7.8035897E-1,-1.8093331E-1,1.0721103E0,-5.056779E-1,1.1083994E0,7.366326E-1,2.305373E0,-8.5998666E-1,6.762399E-1,-8.084571E-2,7.571362E-1,1.195815E-1,2.159029E-1,-4.1054925E-1,1.8507214E0,-6.457264E-3,-6.3298446E-1,-9.1168165E-1,-2.6185054E-1,-7.508094E-1,-9.740811E-1,1.0341106E-1,-5.8995727E-2,1.6677161E0,-3.472217E-1,-4.5242455E-2,-9.653519E-1,-8.4376164E-2,-9.484158E-1,-8.0453E-1,-4.814132E-1,4.7312614E-1,-4.829673E-1,1.2984993E0,2.719747E-1,-8.35846E-2,-2.3966496E-1,-9.8626024E-1,-7.953819E-1,-9.1831166E-1,1.3509835E0,-9.65917E-1,1.4671978E-1,-6.574818E-1,-1.0704943E0,-2.943547E-1,7.306657E-1,2.3207605E0,1.197383E0,-9.9454886E-1,-8.581005E-2,1.1091305E-1,-7.184242E-1,-8.9070565E-1,-6.858651E-1,-7.732359E-2,9.60645E-2,-5.743702E-2,1.4630067E-1,-7.259423E-2,3.713916E-2,1.6391551E-1,9.054417E-2,5.663391E-2,1.2857687E-1,-1.0625658E-2,7.095206E-2,-6.840721E-2,1.23394385E-1,-2.7145876E-2,1.1880517E-1,3.483073E-2,1.8566413E-1,-4.342376E-2,1.4890765E-2,1.2556274E-1,-2.0363745E-3,1.6089733E-1,4.758456E-2,-4.705165E-2,1.9824518E-1,-7.650698E-2,8.9590535E-2,1.3064398E-1,-5.832749E-2,1.4762339E-1,-4.800339E-2,-7.339413E-2,-2.3179974E-3,2.3539254E-2,2.1261373E-1,-3.0013654E-2,4.1117843E-2,-6.595676E-2,-5.09501E-4,-5.7336435E-2,-7.993226E-2,-7.855012E-2,5.6788784E-2,-6.228931E-2,1.15030296E-1,-7.833229E-2,1.49987815E-2,1.4048105E-1,7.167754E-2,-7.2345887E-3,-8.1607826E-2,-9.310785E-3,1.5942523E-1,-5.8025233E-2,-8.489684E-2,1.6870612E-2,-2.4037719E-2,-6.0681064E-2,-8.082714E-2,-5.2260946E-2,-7.381173E-2,-4.4834334E-2,5.7684943E-2,5.6735296E-2,-7.950497E-2,-4.367621E-2,1.4053467E-1,1.7308513E-2,1.7231624E-1,-1.9772252E-2,8.242301E-2,